{"version": "0.5.2", "metadata": {"date": {"year": 2024, "month": 1, "day": 7, "hour": 17, "minute": 1, "second": 30}, "loudness": -15.90851879119873, "gain": 0.7790313217402394}, "architecture": "WaveNet", "config": {"layers": [{"input_size": 1, "condition_size": 1, "head_size": 2, "channels": 4, "kernel_size": 3, "dilations": [1, 2, 4, 8, 16, 32, 64], "activation": "Tanh", "gated": false, "head_bias": false}, {"input_size": 4, "condition_size": 1, "head_size": 1, "channels": 2, "kernel_size": 3, "dilations": [128, 256, 512, 1, 2, 4, 8, 16, 32, 64, 128, 256, 512], "activation": "Tanh", "gated": false, "head_bias": true}], "head": null, "head_scale": 0.02}, "weights": [-1.4532362222671509, 2.1777682304382324, -0.3662967383861542, -0.6921471357345581, -0.6505558490753174, -0.06257171928882599, 0.45838990807533264, 0.7541247010231018, 0.1039339154958725, -0.3825722634792328, -0.5985153913497925, -0.21439777314662933, 0.1370774209499359, -0.7110254764556885, -0.2670953869819641, 0.4303114116191864, -0.33763372898101807, 0.03258071467280388, 0.46806657314300537, 0.3004602789878845, 0.2413361668586731, -0.39653822779655457, -0.4963431656360626, 0.058017194271087646, 0.5209265351295471, -0.3763420879840851, 0.1178939938545227, 0.3073706030845642, 0.7462707757949829, 0.6818032264709473, -0.8822348117828369, -0.6072331070899963, -0.8928316235542297, 0.6307414174079895, 0.5297074317932129, 0.37486809492111206, -0.8834315538406372, 1.0229616165161133, 0.7893568277359009, -0.5720608830451965, -0.2701246440410614, -0.32776835560798645, 0.3484145998954773, -0.013230237178504467, -0.044977396726608276, -0.4501549005508423, -0.06720662862062454, 0.01068226620554924, 0.13922478258609772, -0.23295241594314575, 0.038180477917194366, 0.5558538436889648, 0.14233063161373138, 0.027705566957592964, 0.07583953440189362, 0.008577121421694756, -0.237713024020195, -1.3661465644836426, 0.015386216342449188, -0.8029798269271851, 0.1592402309179306, 1.3722974061965942, -0.383449912071228, 0.6794276237487793, 1.4290729761123657, -0.7587407827377319, -0.649245023727417, -0.5290523171424866, 0.9411120414733887, 0.1150641143321991, -0.8965343236923218, -0.4069741666316986, 0.20358498394489288, 0.3245141804218292, 0.6486919522285461, 0.4456595778465271, 0.05644660070538521, -0.30049508810043335, 0.029985588043928146, -0.19355995953083038, -0.21065007150173187, 0.6635454297065735, -0.2695235311985016, -0.4311404526233673, -0.0492480993270874, 0.18796628713607788, -0.6313661336898804, -0.10824108868837357, 1.026993751525879, 0.07147317379713058, 0.24750763177871704, -0.17570780217647552, 0.4272834360599518, 0.6134128570556641, -0.9625575542449951, -0.376471608877182, -0.17569853365421295, 0.34595799446105957, -0.43053576350212097, -0.3570794463157654, 0.5069426894187927, 0.2817939817905426, 0.14376571774482727, -0.5776965618133545, -0.27185294032096863, -0.04252041131258011, 0.2815101146697998, -0.0018584146164357662, 0.2126188725233078, 0.0423225462436676, 0.08627496659755707, 0.30446600914001465, -0.40394267439842224, 0.28459498286247253, 0.0848068967461586, -0.27267733216285706, -0.20798015594482422, -0.18289092183113098, 0.0037571771536022425, -0.013780144974589348, 0.2551991045475006, 0.06741940975189209, -0.3704943060874939, 0.6373087167739868, -0.5841310024261475, -0.011463819071650505, -0.2636265158653259, -0.07234533131122589, -0.02820260263979435, -0.10723249614238739, -0.05950244516134262, 0.06853598356246948, 0.047251418232917786, 0.8134439587593079, 0.4236415922641754, -0.8806692957878113, -0.39829736948013306, -1.5847638845443726, 0.2203410565853119, 0.7365924119949341, -0.21300551295280457, 0.42037808895111084, 0.309249609708786, -0.34977301955223083, -1.7190989255905151, -0.38111811876296997, 0.5970861315727234, 0.04603772237896919, -1.0154906511306763, -0.7044122219085693, -1.279567837715149, -1.1941485404968262, -0.11048328131437302, 0.345967173576355, 0.2232738584280014, -0.4096295237541199, 0.09648354351520538, -0.6212555170059204, 0.14883539080619812, -0.1300586611032486, 0.47458845376968384, 0.09698174148797989, -0.49759629368782043, -0.13769187033176422, 0.19716617465019226, 0.1400233507156372, -0.31809037923812866, -0.08858191221952438, -1.6661421060562134, 0.6866073608398438, 0.5314613580703735, -0.24929746985435486, 0.7959398627281189, 0.1290130913257599, -0.989891767501831, 0.39272981882095337, 0.3682385981082916, 0.11083651334047318, 0.053240757435560226, 0.09373205155134201, -0.015297703444957733, -0.7062029242515564, 0.0042315395548939705, 0.1529432088136673, 0.6238616108894348, 0.18890978395938873, -0.2615574300289154, 0.16495676338672638, -0.08928406238555908, 0.2136685699224472, 0.026015622541308403, 0.10064096748828888, 0.6054025888442993, -0.37099871039390564, -0.08250704407691956, -0.3228185176849365, 0.3313727080821991, 0.2550581693649292, -0.4098118841648102, -0.04362724721431732, 0.14887049794197083, 0.46540504693984985, -0.2610260546207428, -0.2680441737174988, -0.11764519661664963, 0.0011903690174221992, 0.08858339488506317, 0.14592741429805756, -0.03521169722080231, -0.20025353133678436, -0.2879408001899719, -0.629030168056488, -0.390974223613739, -0.6361508965492249, -0.21473197638988495, -0.6471918821334839, -0.645675003528595, -0.18289895355701447, 0.0026916980277746916, -0.5473884344100952, 0.39950186014175415, 0.24209578335285187, 0.6762003898620605, 0.3157010078430176, -0.7206387519836426, -0.31880444288253784, -0.9780834317207336, -0.5305175185203552, -0.1856631636619568, 0.0047302511520683765, -0.008589369244873524, 0.4251497685909271, 0.02911525033414364, 0.1320597380399704, 0.14750374853610992, -0.4401271939277649, 0.013934028334915638, -0.0034487394150346518, -0.1765940934419632, 0.007455640006810427, 0.19080789387226105, 0.11112970858812332, 0.10271552205085754, -0.2368011325597763, -0.33097922801971436, 0.1783493459224701, 0.4997435212135315, -0.6010961532592773, -0.13064080476760864, -0.37245824933052063, 0.5868651270866394, -0.1681690812110901, 0.06193520128726959, -1.1429682970046997, 0.4707894027233124, 0.11338215321302414, 0.005073991604149342, 0.02244598977267742, -0.3523293137550354, -0.4337037205696106, -0.38266411423683167, -0.08869580179452896, -0.20152483880519867, 0.07150842994451523, 0.5098328590393066, 0.11548662930727005, -0.38106271624565125, -0.6450787782669067, 0.1704341471195221, 0.8014200925827026, -0.15891562402248383, 0.422598659992218, 0.23929589986801147, -0.09682779014110565, 0.5617997646331787, -0.9502909779548645, 0.22337859869003296, 0.0616181306540966, 0.6916328072547913, 0.19564011693000793, 0.041060395538806915, -0.45865416526794434, -0.16776606440544128, 0.1929931938648224, 0.1946926712989807, 0.8657023310661316, -0.5841113328933716, 0.023479023948311806, -1.7819890975952148, 0.06159061938524246, -0.07192369550466537, 0.35436397790908813, -0.9210484623908997, -0.02631780505180359, -0.2806045711040497, -0.2575472593307495, -0.3740158975124359, 0.4576142132282257, 0.49404406547546387, -0.05165453627705574, -0.7109084129333496, 0.3158243000507355, -0.010215052403509617, -0.27268967032432556, -0.008862369693815708, -0.2655455470085144, 0.08078417181968689, 0.19738002121448517, -0.16159850358963013, -0.19423238933086395, -0.09995833784341812, 0.02144669182598591, 0.34153568744659424, 0.15111912786960602, -0.017554042860865593, 0.2253452092409134, -0.2146790623664856, 0.06623336672782898, -0.05889544263482094, 0.46265602111816406, 0.08714988827705383, -0.693109929561615, 0.35072025656700134, -0.4929981827735901, 0.27314069867134094, 0.5089726448059082, -0.5554131865501404, -0.18304291367530823, 0.11525306105613708, -0.11428206413984299, -1.2493047714233398, -0.3976820409297943, -0.0653492733836174, -0.17846868932247162, -0.32843083143234253, 0.19454951584339142, 0.2738358676433563, 0.1290755271911621, 0.22402504086494446, 0.22335509955883026, -0.10518603771924973, 0.10922201722860336, 0.168484628200531, 0.397043377161026, -0.10180016607046127, -0.07178269326686859, 0.22494912147521973, -0.2257922887802124, 0.008024584501981735, -0.4436405599117279, 0.042491503059864044, -0.027522796764969826, -0.056187812238931656, 0.22282972931861877, 0.01967090740799904, 0.24735674262046814, -0.08304798603057861, 0.11301705241203308, -0.10198945552110672, -0.18825238943099976, -0.3455972671508789, -0.6248170733451843, -1.0175672769546509, 0.7534540891647339, 0.9895212650299072, 0.3853082060813904, 1.3999165296554565, -0.49962112307548523, 0.8572635650634766, -0.171662837266922, -1.478927493095398, 1.1894371509552002, -0.5623406171798706, -0.7728737592697144, -0.795722484588623, -0.5106845498085022, 1.1301814317703247, 0.17955538630485535, 0.998740553855896, -0.23125115036964417, 0.3829368054866791, 0.014638010412454605, 0.16559088230133057, 0.3019675612449646, 0.13462044298648834, 0.1978171467781067, -0.1268896907567978, -0.16017411649227142, -0.41695520281791687, 0.6801231503486633, -0.22178272902965546, -0.08016448467969894, 0.09376858919858932, -0.16211538016796112, -0.0862526223063469, -0.2701006531715393, 0.012671777978539467, -0.08219967037439346, -0.0490570142865181, 0.30327314138412476, 0.2687540352344513, 0.1635381132364273, -0.11386615037918091, 0.1323717087507248, 0.14112575352191925, -0.1906598061323166, -0.18060843646526337, 0.5076356530189514, -0.1454916000366211, 0.9718425869941711, -1.6008095741271973, -0.2756032943725586, 0.4611465632915497, -0.7778990864753723, 0.04461563378572464, 0.3990788459777832, 0.3601154088973999, 0.28586822748184204, 0.1656152456998825, -0.3089677393436432, -0.013402752578258514, 0.3444401025772095, 0.6967265009880066, 0.2870714068412781, -0.34844470024108887, -0.7330406308174133, 0.002164400415495038, -0.21131612360477448, -0.7351390719413757, -0.41986918449401855, -0.17535518109798431, 0.27511507272720337, 0.09875856339931488, 0.03551562875509262, -0.15394273400306702, 0.0010032017016783357, 1.8952940702438354, -0.9151990413665771, -1.35508394241333, -0.6238911151885986, -0.08137765526771545, -0.7752618789672852, -0.4024546444416046, 0.6664251089096069, -0.2259688824415207, -0.0930846557021141, 0.019661899656057358, -0.393617182970047, -0.15728981792926788, 0.4648498296737671, 0.4196210205554962, -0.20134101808071136, 0.5039185285568237, -0.2754373550415039, -0.1965421885251999, 0.044911351054906845, 0.012814575806260109, 0.3153104782104492, -0.36778202652931213, -0.24634692072868347, 0.06100256368517876, -0.2881026268005371, 1.059133529663086, 0.10955890268087387, 0.29991692304611206, 0.8156749606132507, 0.11954670399427414, -0.308292031288147, -0.8380304574966431, 0.029297802597284317, 0.743679940700531, 1.0390796661376953, 0.005177317652851343, 0.26320579648017883, 0.7606053948402405, 0.05543950945138931, 0.08903982490301132, -0.9205805659294128, -0.05493662506341934, 0.32284262776374817, -1.7466355562210083, -0.08792412281036377, 0.13886362314224243, 1.1884480714797974, 0.03561782464385033, 0.022040072828531265, -0.16956724226474762, 0.4441967308521271, 0.6046793460845947, 0.09955279529094696, -0.20876526832580566, 0.17517472803592682, 0.1431499421596527, -0.31964603066444397, -0.09913099557161331, 0.47360172867774963, 0.0904698371887207, -0.5055689215660095, 1.0085242986679077, 0.056759923696517944, -1.0677945613861084, 1.269335389137268, 0.06576008349657059, 0.02976466901600361, -0.9246688485145569, -0.07929101586341858, -0.10345951467752457, 0.6543647646903992, -0.2834566533565521, 0.21195417642593384, 0.19119781255722046, 0.002967391163110733, 0.4826502799987793, 0.21451662480831146, 0.33634334802627563, 0.8321335315704346, 0.2541623115539551, 0.6036447882652283, -0.09075139462947845, 0.5063748359680176, 0.2543889582157135, 0.13095992803573608, -0.39168238639831543, 0.14567594230175018, -0.5243192911148071, -0.461732417345047, 0.8164499998092651, -0.7621052265167236, 0.22599944472312927, 0.531682550907135, -0.003898496739566326, 0.2884265184402466, -0.2985280454158783, -0.31355196237564087, -0.42441704869270325, -0.11704551428556442, -0.20085281133651733, -0.15616533160209656, -0.137675479054451, -0.11384173482656479, -0.1939164698123932, -0.06382980942726135, -0.14845582842826843, -0.04387539252638817, 0.06439857929944992, 0.3146103322505951, -0.0782720297574997, 0.00091066729510203, 0.1746392399072647, 0.4703008234500885, -0.15471197664737701, -0.4971102476119995, 0.0007230784394778311, 0.004554170649498701, -1.0319277048110962, 0.011565656401216984, -0.02195923589169979, -0.383195698261261, 0.0025482906494289637, -0.005453420337289572, -0.1699187308549881, -0.01292478572577238, 0.0669095367193222, -0.4049738943576813, -0.16041122376918793, 0.15420618653297424, -0.29358479380607605, -0.7525346875190735, 0.3347471058368683, 0.0464881993830204, 1.0028477907180786, 0.5319315791130066, -0.2365543395280838, -0.3951444923877716, 0.019511613994836807, 0.005372404120862484, -0.4161318242549896, 0.008416559547185898, 0.003227351699024439, 0.24474415183067322, 0.20845405757427216, 0.028473781421780586, -0.4840126931667328, -0.10788970440626144, 0.02527257427573204, 0.0113378269597888, 0.3355989456176758, 0.12870743870735168, -0.07477258890867233, 0.6615274548530579, -0.05189965292811394, -0.3474831283092499, -0.4676496386528015, 0.22710373997688293, 0.25259166955947876, 0.3326399624347687, 0.024729691445827484, 0.38689714670181274, 0.31685957312583923, -0.024633895605802536, -0.0932634100317955, -0.05548014119267464, 0.0072280531749129295, 0.11468556523323059, -0.5005707144737244, 0.0027104346081614494, 0.17839652299880981, 0.22193428874015808, -0.2801123559474945, 0.099946990609169, -0.44318923354148865, -0.44819578528404236, 0.252512663602829, -0.2505219578742981, -0.15622130036354065, 0.07662959396839142, 0.2886393368244171, 0.13960184156894684, 1.6173527240753174, 1.887873888015747, 0.09179636836051941, -0.6368094682693481, -0.6666078567504883, 0.8880431652069092, -0.15247806906700134, 0.13361358642578125, 0.46052753925323486, -0.4733395278453827, -2.745370864868164, -1.8023804426193237, -0.0769578292965889, 0.07328619062900543, 1.4723478555679321, -1.1330304145812988, 1.4654985666275024, -0.6872602105140686, -0.580463171005249, -0.49753338098526, -0.2395768016576767, 0.2640267312526703, -0.42062658071517944, -0.025560978800058365, 0.5105836391448975, -0.27442118525505066, -0.6772436499595642, 0.11285481601953506, -0.049803830683231354, 0.036676790565252304, 0.5031325817108154, 0.07104406505823135, 0.255463570356369, 0.2502133846282959, 0.3600129783153534, -0.021780800074338913, 2.0811731815338135, -1.3370939493179321, 0.382190465927124, -1.5587197542190552, 0.49369844794273376, -0.07529909163713455, 0.02924754098057747, -0.1545412242412567, -0.18196873366832733, -0.11653193831443787, 0.04331870377063751, -0.5053629279136658, -1.4526880979537964, 0.10667353868484497, -0.01462539378553629, -0.4053635597229004, -0.010869836434721947, -0.17319153249263763, -0.38224396109580994, 0.046914927661418915, 0.11996070295572281, -0.13795754313468933, 0.4737284779548645, 2.256990671157837, 0.3785603940486908, -0.6301634907722473, 0.4269515573978424, -0.636657178401947, -0.008650398813188076, -0.018786747008562088, 0.8971384167671204, 0.02316472865641117, 0.027982907369732857, -1.1966472864151, 0.18142063915729523, 0.015893196687102318, 0.9055834412574768, 0.0033485570456832647, -0.029792925342917442, 0.8011173605918884, 0.0215908270329237, -0.026951100677251816, 0.18927434086799622, -0.10798198729753494, -2.163365364074707, 0.01004891935735941, -1.5630521774291992, 2.307513952255249, -1.1256550550460815, 1.4784207344055176, -0.35027432441711426, -0.18960139155387878, -0.08300089836120605, 0.8754194974899292, -0.05655156448483467, 0.053303349763154984, -1.3731880187988281, 0.013086377643048763, -0.35700786113739014, -0.11912745237350464, 0.14821305871009827, 0.6866293549537659, 0.12673676013946533, 0.3199726939201355, 0.3506618142127991, -0.12437274307012558, 3.0253336429595947, -2.8298683166503906, 0.8955393433570862, -0.48433804512023926, -2.8478732109069824, -0.06283214688301086, 0.5912888646125793, -0.5110043287277222, -0.04984097182750702, 0.18520812690258026, -0.13863959908485413, -0.002968246815726161, -0.11145490407943726, -0.24924878776073456, 0.04097544029355049, 0.16110162436962128, 0.06609683483839035, -0.021214772015810013, -0.03591989725828171, 0.226130872964859, -0.0763089582324028, 0.02827465906739235, -2.228069543838501, -1.4020555019378662, 1.6445504426956177, 1.589979887008667, -0.3798845112323761, -2.4648847579956055, -0.18228842318058014, -0.18963181972503662, -0.0030212386045604944, -0.11313468962907791, -0.043169304728507996, -0.002543149283155799, 0.027031101286411285, -0.20976144075393677, 0.03303894028067589, 0.08145830035209656, 0.2906709611415863, 0.0036330551374703646, -0.05247021093964577, 0.4265251159667969, -0.09291089326143265, 0.16885489225387573, -4.144594669342041, -0.22688452899456024, -0.026097720488905907, 0.2797339856624603, 0.10044562071561813, -0.26884132623672485, 0.17342102527618408, -0.49395516514778137, 0.0006871589575894177, 0.0048924959264695644, -0.33072423934936523, 0.004959950223565102, -0.014857842586934566, -0.500130832195282, 0.020249351859092712, 0.034911997616291046, 0.4232701063156128, -0.022042924538254738, -0.039284106343984604, -0.08824443817138672, -0.5375791788101196, -0.36282116174697876, 1.7984039783477783, -0.4340219795703888, 1.205249309539795, -0.6241921782493591, 0.9654603004455566, -0.5260473489761353, 0.6117648482322693, 0.2479027360677719, 0.015508976764976978, 0.01746944710612297, -0.5654405355453491, 0.010314571671187878, 0.006448976695537567, -0.6116321682929993, -0.009120060130953789, -0.01372450403869152, 0.5377216339111328, -0.006129929330199957, 0.030299967154860497, 0.2084348499774933, 0.6481735706329346, 0.2670135498046875, 0.19950784742832184, 3.5183165073394775, -0.3894786834716797, -0.709327220916748, 0.43133270740509033, -0.9129657745361328, -0.005285357590764761, 0.37088531255722046, 0.01901264674961567, -0.005247211083769798, -0.5495909452438354, 0.010851922444999218, -0.015769917517900467, -0.4291161596775055, 0.008153466507792473, 0.003029012121260166, 0.29467689990997314, 0.002632362535223365, -0.0097309909760952, 0.40760180354118347, 0.1753125786781311, 0.01892661675810814, 3.2024736404418945, -0.5145257711410522, 0.07090878486633301, -0.2630368769168854, -0.5921692252159119, 0.2861429452896118, 0.09047992527484894, -0.2831847667694092, -1.003596544265747, 1.4274299144744873, 0.3124794661998749, 0.019999999552965164], "sample_rate": 48000.0}