{"version": "0.5.1", "metadata": {"date": {"year": 2023, "month": 4, "day": 29, "hour": 16, "minute": 29, "second": 22}, "loudness": -11.340448379516602, "gain": 0.8577156989118655, "name": "", "modeled_by": "FabDef", "gear_type": "amp", "gear_make": "", "gear_model": "EVH 5150 III", "tone_type": "hi_gain"}, "architecture": "WaveNet", "config": {"layers": [{"input_size": 1, "condition_size": 1, "head_size": 8, "channels": 16, "kernel_size": 3, "dilations": [1, 2, 4, 8, 16, 32, 64, 128, 256, 512], "activation": "Tanh", "gated": false, "head_bias": false}, {"input_size": 16, "condition_size": 1, "head_size": 1, "channels": 8, "kernel_size": 3, "dilations": [1, 2, 4, 8, 16, 32, 64, 128, 256, 512], "activation": "Tanh", "gated": false, "head_bias": true}], "head": null, "head_scale": 0.02}, "weights": [5.6596854847157374e-05, 0.38910260796546936, -0.9493927955627441, -0.7456176280975342, -0.4018787145614624, 0.2762399911880493, -0.035886120051145554, 0.7424021363258362, -0.08860025554895401, 0.2718091905117035, -0.41191402077674866, -0.058634307235479355, -0.8817715644836426, -0.6844779253005981, -0.4319319725036621, 0.1418260633945465, 0.04838359355926514, 0.11039119958877563, -0.055174581706523895, -0.12189826369285583, 0.13379694521427155, 0.2174769937992096, 0.026197129860520363, 0.026685619726777077, -0.12079153954982758, 0.0720609650015831, 0.0490153431892395, -0.23138302564620972, -0.028438562527298927, -0.11341103911399841, -0.14789655804634094, 0.05932977795600891, -0.02164144441485405, 0.019970089197158813, 0.0004810751706827432, -0.18006153404712677, -0.13746005296707153, 0.0667104497551918, 0.14324446022510529, 0.16350843012332916, 0.09276425093412399, -0.12939003109931946, -0.039907898753881454, -0.20121890306472778, -0.03178327903151512, 0.01169557124376297, 0.15636883676052094, 0.011204923503100872, -0.1527506560087204, 0.06729208678007126, 0.018630746752023697, 0.05361081287264824, 0.11284499615430832, -0.06214408576488495, 9.498300642007962e-06, -0.0273952167481184, -0.052936211228370667, -0.2065018117427826, -0.03784715756773949, -0.1503266841173172, -0.024319292977452278, -0.09972180426120758, -0.05967799201607704, 0.09846175462007523, 0.026541823521256447, -0.10951198637485504, -0.08876318484544754, -0.04512932151556015, -0.06405036151409149, 0.18641650676727295, -0.02893427200615406, 0.10344890505075455, 0.0076896133832633495, 0.20097771286964417, 0.281980961561203, 0.07875068485736847, 0.10593549907207489, 0.02675354853272438, -0.03958722576498985, -0.16202884912490845, -0.27917876839637756, 0.1875820904970169, 0.14248256385326385, -0.03679073601961136, -0.06578440964221954, -0.10539855808019638, -0.1783044934272766, -0.015781264752149582, 0.10923557728528976, 0.0420050248503685, -0.024725856259465218, 0.0008488045423291624, -0.04353800788521767, 0.11236264556646347, -0.06914293766021729, 0.054423633962869644, 0.013036789372563362, 0.0885457694530487, 0.019566413015127182, -0.14082780480384827, 0.21800459921360016, 0.2536013722419739, -0.11083938926458359, 0.04439227655529976, 0.01778268627822399, -0.05219818651676178, -0.031897611916065216, 0.03968000411987305, -0.06291382759809494, -0.010844780132174492, -0.1793375313282013, 0.173445925116539, -0.09136709570884705, 0.08515436947345734, 0.09834007173776627, -0.1133132129907608, 0.056744810193777084, -0.03715645894408226, 0.009920119307935238, -0.060020413249731064, 0.10085834562778473, -0.0013600557576864958, -0.16444961726665497, 0.11329113692045212, -0.14301876723766327, -0.17462535202503204, 0.01626371592283249, -0.07051394879817963, 0.03217136859893799, -0.17682012915611267, 0.012668208219110966, -0.01607467606663704, 0.015633124858140945, 0.002921501873061061, 0.1960006058216095, -0.06126561388373375, 0.024283351376652718, -0.07794811576604843, 0.11610304564237595, 0.09130336344242096, 0.2207571417093277, 0.03182701766490936, 0.13579235970973969, -0.09560777246952057, -0.07154637575149536, -0.061313677579164505, 0.0179896242916584, 0.05641864612698555, -0.08318894356489182, -0.20513850450515747, -0.09108196943998337, -0.13062475621700287, -0.12158267945051193, 0.12690523266792297, 0.0728706568479538, -0.22830280661582947, 0.14327162504196167, -0.17158669233322144, 0.0043300059624016285, -0.17177553474903107, -0.04258829727768898, -0.03332318365573883, -0.1920931190252304, -0.1445128172636032, -0.11845184117555618, 0.0017740674084052444, -0.04240404814481735, 0.15191277861595154, -0.12763270735740662, 0.012435832992196083, 0.22449034452438354, -0.05796412378549576, 0.14771439135074615, 0.1454288214445114, -0.13608530163764954, 0.07819502800703049, -0.10411766171455383, -0.05349797010421753, 0.09055213630199432, -0.061275795102119446, -0.04448200762271881, -0.052563149482011795, 0.006806112360209227, 0.04065424203872681, 0.06524860858917236, 0.12388867139816284, -0.07194338738918304, -0.04313572496175766, -0.20743797719478607, 0.09130167216062546, 0.1287665218114853, 0.18785515427589417, -0.11208096891641617, 0.009312608279287815, -0.019838370382785797, -0.09841077029705048, -0.060703180730342865, 0.14738263189792633, -0.08428265899419785, 0.018110765144228935, 0.10226409882307053, 0.09175033867359161, -0.0908970981836319, -0.0055881221778690815, -0.08970958739519119, 0.13825079798698425, -0.09440280497074127, 0.18710392713546753, -0.046658556908369064, -0.2042800635099411, -0.24684415757656097, 0.09889746457338333, 0.2011243999004364, -0.14779894053936005, -0.13733847439289093, -0.17089803516864777, 0.0045676021836698055, -0.20935356616973877, -0.07215223461389542, 0.0004141503886785358, -0.14082032442092896, -0.043085046112537384, 0.17542695999145508, 0.130111962556839, 0.053031325340270996, -0.05860408768057823, -0.19590868055820465, -0.19235797226428986, 0.12184979021549225, 0.11259550601243973, 0.18854142725467682, 0.0010001730406656861, -0.09249669313430786, -0.038113318383693695, 0.23877309262752533, 0.034819211810827255, 0.24663932621479034, -0.2310614138841629, -0.19032491743564606, -0.1406686156988144, 0.17721231281757355, 0.0019302585860714316, -0.20719188451766968, 0.12683071196079254, -0.05989522859454155, -0.32764777541160583, 0.220462828874588, -0.252543181180954, -0.18556706607341766, 0.0950593426823616, -0.2070717066526413, -0.16695651412010193, 0.24299708008766174, 0.017168734222650528, 0.06493367999792099, -0.175774946808815, -0.1664232462644577, 0.013220198452472687, -0.09408056735992432, -0.08701622486114502, 0.022635947912931442, 0.06294012069702148, 0.06446858495473862, 0.003301858901977539, 0.07143431901931763, -0.05922844260931015, -0.1476660668849945, 0.06261873245239258, 0.11208761483430862, -0.06419643014669418, -0.041714806109666824, -0.06612567603588104, -0.03962692245841026, -0.002370655070990324, -0.045637596398591995, -0.19431039690971375, 0.2105082869529724, -0.08237826824188232, 0.0897052213549614, 0.020177677273750305, 0.02034483291208744, -0.17883582413196564, -0.0564364418387413, 0.11668097972869873, 0.12172941863536835, 0.08551093935966492, -0.05133014917373657, -0.056779645383358, -0.0010920115746557713, 0.0006304315174929798, -0.17844006419181824, 0.08923690021038055, 0.033291175961494446, -0.11069998145103455, -0.013347236439585686, -0.09920471906661987, -0.006257553119212389, -0.08543618768453598, 0.05231132730841637, -0.15157091617584229, -0.04224690794944763, -0.030146976932883263, -0.017934439703822136, -0.04800491780042648, -0.007213055156171322, -0.23374800384044647, -0.08039478957653046, 0.03570883721113205, 0.13003982603549957, -0.07472776621580124, -0.09755945950746536, -0.09833109378814697, 0.10363483428955078, -0.029784509912133217, -0.02020026184618473, 0.15145254135131836, -0.04881202057003975, -0.07048317044973373, 0.12023978680372238, -0.019906669855117798, 0.07714369893074036, -0.04953496903181076, -0.055059146136045456, -0.03377077355980873, 0.20055177807807922, 0.10719596594572067, 0.15809926390647888, -0.038030147552490234, 0.11504446715116501, -0.12158629298210144, -0.028012385591864586, -0.15588589012622833, 0.21036283671855927, 0.023076677694916725, -0.07120001316070557, -0.012836157344281673, 0.1730732023715973, 0.18802259862422943, 0.06859090924263, 0.18725009262561798, -0.011216452345252037, -0.1257314682006836, 0.17367671430110931, 0.10388867557048798, -0.16130436956882477, 0.1865716278553009, 0.09620950371026993, 0.0074769300408661366, -0.028286172077059746, -0.06976568698883057, -0.056023262441158295, -0.020697910338640213, 0.005962036550045013, 0.06899222731590271, 0.055904749780893326, 0.10419636964797974, 0.06409769505262375, 0.18543627858161926, -0.14633460342884064, -0.08281613141298294, -0.21600478887557983, -0.1868267059326172, -0.23070070147514343, -0.003059657523408532, 0.03814677521586418, 0.024425331503152847, 0.004034240264445543, -0.09316255152225494, 0.007762856315821409, 0.08341912180185318, -0.09184350818395615, 0.0251031331717968, -0.17342892289161682, -0.025729216635227203, -0.02519688941538334, 0.034175410866737366, 0.10072652250528336, 0.027407648041844368, 0.019192524254322052, 0.14683164656162262, 0.2347145974636078, 0.06875603646039963, 0.02573169395327568, 0.020359333604574203, -0.06183915585279465, 0.12141864001750946, -0.02191995084285736, -0.005261643789708614, -0.09621647745370865, -0.04638513922691345, -0.10131336003541946, -0.0780729129910469, -0.19518223404884338, -0.19658708572387695, -0.15148714184761047, -0.014032934792339802, -0.008896640501916409, 0.016569659113883972, 0.013411102816462517, 0.21015550196170807, 0.17500776052474976, 0.09809716790914536, 0.06076173856854439, 0.17892006039619446, 0.1549837440252304, -0.1253267079591751, 0.08833906054496765, 0.01040544081479311, -0.03872311860322952, 0.03267640992999077, -0.18034811317920685, -0.007651120889931917, 0.07825538516044617, -0.08843553811311722, -0.08127008378505707, -0.008941766805946827, 0.04908422380685806, -0.05520029366016388, 0.009186859242618084, 0.075992651283741, 0.07650743424892426, -0.04059531167149544, 0.10476678609848022, 0.05288013443350792, 0.05003972724080086, -0.20313650369644165, 0.02713635377585888, -0.06803031265735626, 0.02745867148041725, 0.024190397933125496, -0.1445542424917221, -0.03814027085900307, 0.1467457264661789, -0.019419770687818527, -0.1764698028564453, -0.01895418018102646, -0.01812361180782318, -0.2090241014957428, 0.08583448082208633, -0.1787281185388565, -0.23604410886764526, -0.12348977476358414, -0.07339688390493393, 0.0035363438073545694, -0.1141195222735405, 0.12273199111223221, -0.010084643959999084, -0.028999894857406616, 0.08247123658657074, -0.032989270985126495, 0.22407591342926025, 0.12880796194076538, 0.27077001333236694, 0.0563662126660347, -0.14965826272964478, -0.01036712434142828, 0.021086974069476128, 0.014856689609587193, -0.24617765843868256, -0.027316438034176826, -0.19287873804569244, -0.18416807055473328, 0.049704160541296005, -0.0665552020072937, 0.16794493794441223, 0.053285229951143265, 0.002138678915798664, -0.18903997540473938, -0.047363001853227615, 0.00956512987613678, 0.1931465119123459, 0.12758547067642212, 0.04844517633318901, -0.12548507750034332, 0.09509362280368805, -0.09485241025686264, -0.0003386618918739259, 0.04274019971489906, -0.12885908782482147, -0.05421008914709091, -0.07837799191474915, -0.10710127651691437, -0.22637328505516052, 0.112941674888134, -0.06964933127164841, -0.01996050402522087, 0.10249259322881699, 0.02672393061220646, -0.12490655481815338, -0.02920924872159958, -0.08284728229045868, -0.10877854377031326, 0.08988054096698761, -0.07546238601207733, 0.23176120221614838, -0.06566862016916275, -0.08520715683698654, -0.009196851402521133, 0.15907683968544006, 0.06307537853717804, -0.2494572401046753, 0.1610562950372696, 0.14441104233264923, 0.20311132073402405, 0.0636790543794632, -0.006931889336556196, 0.16285160183906555, -0.0001766131172189489, 0.023653544485569, 0.1610095202922821, -0.10658453404903412, 0.028689559549093246, -0.14517919719219208, 0.01862809620797634, 0.059450551867485046, 0.12111308425664902, -0.1842358410358429, -0.058231599628925323, -0.03269996866583824, 0.04581679031252861, 0.08660706877708435, 0.052889131009578705, -0.045721620321273804, -0.16574028134346008, -0.19193898141384125, -0.0011328402906656265, 0.196846142411232, 0.07098707556724548, -0.06936893612146378, -0.018734166398644447, 0.24176184833049774, 0.06581345945596695, -0.03685588389635086, 0.0008971834904514253, -0.16752974689006805, 0.06935252249240875, 0.07925298064947128, -0.15538789331912994, 0.014753421768546104, 0.1395091712474823, -0.14167653024196625, 0.019790859892964363, -0.10330966114997864, 0.011766373179852962, 0.021145014092326164, 0.12185067683458328, -0.10332854092121124, 0.035492997616529465, -0.19422948360443115, 0.10349947214126587, -0.16204218566417694, 0.0054613579995930195, 0.17972376942634583, -0.1184389665722847, 0.17021429538726807, 0.02396278642117977, -0.06364693492650986, 0.1044142097234726, 0.12153756618499756, 0.04438897594809532, -0.27068817615509033, -0.10965389013290405, -0.1343429684638977, 0.15938696265220642, -0.11496566236019135, 0.16275984048843384, -0.17265841364860535, -0.06007532402873039, 0.051492322236299515, 0.1792452186346054, 0.1196674332022667, 0.12249751389026642, -0.1740555316209793, -0.11859885603189468, -0.047606803476810455, 0.25245511531829834, -0.022625543177127838, -0.17616774141788483, 0.18684184551239014, 0.16990450024604797, -0.06657730042934418, 0.023123010993003845, -0.09432171285152435, 0.00742345629259944, 0.12878042459487915, -0.03982102870941162, -0.003381934715434909, 0.1912538707256317, 0.1435280293226242, 0.25254616141319275, -0.0800931379199028, -0.1020708680152893, -0.13047876954078674, 0.1103324443101883, 0.0027881874702870846, -0.015286560170352459, -0.23368601500988007, 0.11989691108465195, 0.2190687507390976, 0.24254100024700165, -0.10582556575536728, 0.026658011600375175, 0.012164581567049026, 0.15171587467193604, 0.015658441931009293, 0.04243801534175873, 0.08651415258646011, -0.13958775997161865, -0.1734870821237564, -0.017462626099586487, 0.02808414213359356, -0.03734491765499115, 0.09321554005146027, -0.14480873942375183, -0.059499140828847885, 0.11157561838626862, 0.13028734922409058, 0.10800358653068542, 0.10751696676015854, -0.05389437451958656, -0.17028552293777466, 0.13145825266838074, 0.11020916700363159, -0.03479275852441788, -0.03268402814865112, -0.03999263420701027, 0.21717418730258942, -0.025678768754005432, -0.04978274181485176, 0.10262857377529144, 0.10607879608869553, 0.11846499890089035, 0.15678715705871582, 0.027821315452456474, 0.13106180727481842, 0.0718359649181366, -0.04866398870944977, -0.18717968463897705, -0.19428126513957977, 0.07108790427446365, -0.11570139974355698, 0.017804477363824844, 0.0016576099442318082, -0.05037526413798332, -0.17035773396492004, 0.141611248254776, -0.01801237091422081, 0.19904860854148865, -0.11446406692266464, 0.029487261548638344, 0.15801897644996643, -0.060110077261924744, 0.18238341808319092, -0.022329244762659073, -0.12657293677330017, -0.12249110639095306, -0.04929349571466446, 0.14271900057792664, -0.03819108009338379, 0.10473303496837616, -0.07752174884080887, -0.09556639194488525, 0.027188478037714958, -0.1099887490272522, 0.059178754687309265, 0.19796404242515564, -0.04799671098589897, 0.05492063984274864, -0.1176818236708641, 0.126805379986763, -0.07980448007583618, 0.05363079905509949, -0.03298366069793701, 0.08660885691642761, 0.11829838901758194, 0.08804009854793549, 0.04362748563289642, 0.07454579323530197, 0.09866368025541306, 0.025301596149802208, 0.20613305270671844, -0.09764067828655243, 0.04580855742096901, 0.06903577595949173, 0.0585637129843235, 0.07561102509498596, -0.056165922433137894, -0.07767991721630096, 0.04453444108366966, -0.11863164603710175, -0.08102921396493912, 0.04275650903582573, -0.10204114019870758, 0.14027808606624603, -0.12413918226957321, 0.06405483186244965, 0.09313748776912689, -0.24132099747657776, 0.230702206492424, 0.014150355011224747, -0.20418067276477814, 0.24288547039031982, -0.13665936887264252, 0.17246706783771515, -0.2795802652835846, -0.004264688119292259, -0.14147484302520752, 0.2570528984069824, -0.09467893093824387, 0.22744080424308777, -0.21402759850025177, -0.05991237238049507, -0.27619513869285583, 0.025676153600215912, 0.1181657537817955, 0.10385911166667938, -0.17741966247558594, 0.05224135145545006, -0.04604129493236542, 0.313996821641922, 0.10220503807067871, -0.23537909984588623, 0.14636753499507904, -0.08228122442960739, -0.21596889197826385, 0.23114748299121857, 0.12865610420703888, -0.2507248520851135, 0.2823476493358612, -0.08314836770296097, -0.16489695012569427, 0.3064413070678711, -0.04220312833786011, 0.18869970738887787, -0.30235156416893005, 0.11796005070209503, 0.03958660736680031, 0.020635658875107765, 0.1085062175989151, -0.154774010181427, -0.2927544414997101, 0.01957729272544384, 0.1710483580827713, 0.14017599821090698, 0.055561043322086334, 0.17885518074035645, 0.27615484595298767, -0.08852086216211319, 0.03352983668446541, 0.12983998656272888, -0.13499966263771057, -0.04430964216589928, -0.059238251298666, 0.14663636684417725, 0.013522510416805744, 0.16156397759914398, -0.13095015287399292, 0.05383775755763054, -0.23860737681388855, -0.08556068688631058, 0.045696478337049484, 0.2360977679491043, -0.17959655821323395, 0.08643150329589844, -0.11797943711280823, -0.07553315907716751, 0.01514667458832264, 0.2967112064361572, -0.13513058423995972, -0.007187405601143837, 0.2084190845489502, -0.14717906713485718, 0.13499398529529572, 0.2552102208137512, 0.07692316919565201, -0.03857528790831566, 0.3219378888607025, -0.10122425854206085, 0.1941414326429367, 0.036808524280786514, -0.1487656831741333, 0.11852028220891953, -0.11151626706123352, 0.06291059404611588, -0.09512332081794739, -0.11453546583652496, -0.10295351594686508, -0.07875196635723114, 0.0007884870865382254, 0.03111366368830204, 0.0016133140306919813, -0.0035129832103848457, 0.045048803091049194, 0.10231324285268784, -0.019255129620432854, -0.00786892231553793, -0.0286677498370409, 0.001363840652629733, -0.028864679858088493, 0.026387009769678116, 0.5466137528419495, -0.384669691324234, 0.7602522969245911, -0.7105470895767212, -0.10753849148750305, 0.8870596885681152, 0.9466392993927002, -0.45534420013427734, 0.17056359350681305, 0.11050883680582047, -0.41705554723739624, -0.3875555098056793, 0.24944017827510834, -0.7012147307395935, 0.17064587771892548, 0.4393065273761749, 0.02855200506746769, 0.19370293617248535, 0.03659041225910187, 0.12506335973739624, 0.2566096782684326, -0.0346246212720871, 0.16620959341526031, 0.02544965222477913, -0.05268928036093712, -0.03426526114344597, 0.0053777992725372314, -0.06642019748687744, 0.06234986335039139, -0.012538124807178974, 0.23409175872802734, -0.049695681780576706, -0.12820971012115479, -0.07693089544773102, -0.3517042398452759, 0.128503680229187, -0.009767589159309864, -0.1828727275133133, -0.17456407845020294, 0.04776972904801369, -0.06326949596405029, 0.11257337033748627, 0.0790528655052185, 0.20234937965869904, 0.06707849353551865, 0.007627468556165695, 0.11871381849050522, 0.28414618968963623, -0.1276015043258667, 0.1872953623533249, -0.1538819670677185, 0.2940720319747925, -0.26774102449417114, -0.28148704767227173, -0.054046884179115295, -0.23305240273475647, -0.10538268834352493, -0.27467894554138184, 0.3093055784702301, -0.09611829370260239, 0.22899682819843292, 0.3712107837200165, -0.008363203145563602, 0.16093969345092773, 0.16168782114982605, -0.1728920191526413, 0.014145438559353352, -0.20104755461215973, 0.0647103413939476, 0.09363308548927307, 0.05872844532132149, -0.030652964487671852, -0.16306062042713165, 0.09497467428445816, -0.06398085504770279, -0.023273121565580368, 0.12252892553806305, 0.19447703659534454, -0.4305729269981384, -0.10566852986812592, -0.20538541674613953, -0.2480742335319519, -0.32049068808555603, 0.16520486772060394, 0.03530073165893555, 0.09197477996349335, 0.036716800183057785, -0.10748878121376038, 0.09981844574213028, 0.19218192994594574, -0.11219576746225357, 0.1746182143688202, -0.007993009872734547, 0.1482323557138443, -0.3096546530723572, 0.2026391327381134, -0.16122224926948547, -0.05437338352203369, 0.16596220433712006, 0.02933298423886299, 0.29390913248062134, 0.27953410148620605, 0.29505327343940735, 0.16568049788475037, 0.20583699643611908, 0.03042443096637726, -0.26022541522979736, -0.11641674488782883, -0.06937684118747711, -0.17626631259918213, 0.03010987862944603, -0.022972997277975082, -0.07824118435382843, 0.23448151350021362, 0.06082336604595184, 0.29388606548309326, -0.3784477710723877, -0.3786204159259796, -0.08046030253171921, -0.044105444103479385, -0.0731431171298027, -0.4180808961391449, 0.012974617071449757, 0.38524559140205383, 0.3000856637954712, -0.03159383684396744, 0.2970230281352997, 0.04893013834953308, 0.15849211812019348, 0.1566265970468521, 0.20643168687820435, -0.18027977645397186, -0.30069804191589355, 0.09614405035972595, 0.15088145434856415, 0.11270176619291306, 0.1068071499466896, -0.2728484869003296, 0.23522549867630005, -0.19154629111289978, 0.07028032094240189, -0.11257211863994598, -0.12335024029016495, 0.07594066113233566, -0.0776347666978836, -0.028978625312447548, -0.29482319951057434, -0.19424623250961304, 0.04168042168021202, -0.12991707026958466, -0.19333578646183014, 0.0010217661038041115, -0.21819184720516205, -0.23066632449626923, 0.18489912152290344, 0.16649624705314636, 0.031061097979545593, -0.11461258679628372, 0.06455244868993759, 0.0937914103269577, -0.08444578945636749, -0.023512400686740875, 0.278230756521225, -0.3190351128578186, -0.24129563570022583, 0.16177742183208466, 0.26580044627189636, -0.10179432481527328, 0.1137240007519722, 0.2384311556816101, 0.008522043004631996, -0.06404805183410645, 0.23449097573757172, 0.10587546974420547, -0.18100903928279877, 0.04379118233919144, -0.058374907821416855, 0.3644770383834839, -0.4450855553150177, 0.2727928161621094, -0.23875248432159424, -0.4194447100162506, -0.16419322788715363, -0.20846691727638245, -0.10914349555969238, -0.32626524567604065, 0.02844909019768238, 0.16415025293827057, 0.040745653212070465, 0.3265942633152008, 0.05885812267661095, 0.39019015431404114, -0.013210191391408443, -0.13275273144245148, 0.23360995948314667, -0.030343297868967056, 0.2284085899591446, -0.08027751743793488, 0.08328674733638763, -0.023021815344691277, 0.018490416929125786, -0.10056477785110474, -0.09631356596946716, -0.13093352317810059, -0.15671415627002716, 0.08799049258232117, -0.25510042905807495, -0.3103455901145935, 0.040200959891080856, -0.1180514544248581, 0.16922767460346222, 0.06788806617259979, 0.2594204843044281, -0.10515648871660233, 0.11343197524547577, -0.02135659009218216, 0.16138069331645966, 0.04413106292486191, -0.16626079380512238, 0.08988464623689651, 0.19573093950748444, -0.12118985503911972, 0.021303720772266388, 0.03312854468822479, -0.12091317027807236, -0.15318787097930908, -0.24180540442466736, 0.1618802696466446, -0.13685311377048492, 0.08022964000701904, 0.09581068158149719, 0.03295157849788666, -0.07470206916332245, -0.15405744314193726, 0.08722425997257233, 0.07182620465755463, -0.14026662707328796, 0.03169235587120056, -0.08046776056289673, 0.21950861811637878, -0.3106590509414673, 0.3855624794960022, -0.30994147062301636, 0.017731046304106712, -0.1429571807384491, -0.17364388704299927, -0.05308486893773079, -0.08105655759572983, -0.3640979528427124, -0.08154621720314026, 0.16194234788417816, 0.04488353058695793, 0.2830588221549988, 0.3854866325855255, -0.26638883352279663, 0.2379685789346695, 0.3858306407928467, 0.053548816591501236, 0.3416357636451721, -0.14928966760635376, -0.11745855212211609, 0.3612242043018341, 0.2179536521434784, 0.2939710319042206, -0.006226878613233566, -0.0977175384759903, -0.1366136074066162, -0.38605713844299316, 0.03843672201037407, 0.046043481677770615, -0.1579846739768982, -0.05631084740161896, 0.06502469629049301, -0.13156269490718842, 0.21635228395462036, -0.06431781500577927, -0.1283874660730362, -0.0014159699203446507, 0.07884732633829117, 0.02355358563363552, -0.006113483104854822, -0.13486237823963165, 0.08165735751390457, 0.018893305212259293, 0.00013991263404022902, 0.1327371895313263, 0.07779873162508011, 0.014960940927267075, -0.05005759745836258, 0.04591183364391327, -0.01936269924044609, 0.008907821960747242, -0.011644151993095875, 0.09402832388877869, -0.133366659283638, 0.12158095091581345, 0.10954287648200989, -0.21441254019737244, -0.1644151359796524, -0.04931379482150078, -0.17904037237167358, -0.07195404171943665, 0.050405103713274, 0.2017771303653717, -0.2330121099948883, -0.028734426945447922, -0.1946864128112793, -0.03262808173894882, 0.06873098760843277, 0.2394871711730957, -0.3710132837295532, -0.036530930548906326, -0.14255960285663605, 0.2007324993610382, -0.0561860129237175, -0.03196890652179718, -0.10364211350679398, -0.08579830825328827, -0.18580110371112823, 0.140958771109581, 0.12509337067604065, -0.10231062024831772, -0.3498896360397339, -0.09322535246610641, -0.15686285495758057, 0.018218304961919785, -0.14030170440673828, -0.13993056118488312, 0.17397767305374146, -0.03246420621871948, -0.21792072057724, 0.1639026552438736, 0.054821401834487915, 0.24915975332260132, -0.23806032538414001, -0.09858816117048264, 0.05060630664229393, -0.043370187282562256, 0.08682528883218765, -0.2105112373828888, 0.044444598257541656, 0.09246732294559479, -0.15673579275608063, -0.02387339435517788, 0.13659483194351196, -0.1459732949733734, 0.04863335192203522, -0.058704305440187454, -0.0060179163701832294, -0.06870349496603012, 0.12890900671482086, -0.01091112568974495, -0.13658320903778076, -0.0365060418844223, 0.04352118819952011, -0.06594374775886536, 0.0009994014399126172, 0.1844516396522522, -0.039425499737262726, 0.06337566673755646, -0.20609158277511597, -0.0003417529514990747, -0.028593674302101135, 0.12239861488342285, -0.014676539227366447, -0.1766493320465088, -0.060995496809482574, 0.05785226821899414, 0.012823461554944515, -0.04106040671467781, -0.1431494802236557, 0.09670104831457138, 0.049833282828330994, -0.04143112525343895, 0.05609521642327309, -0.028159793466329575, 0.09654550999403, 0.07413607090711594, -0.1469114124774933, -0.06906268745660782, 0.014945948496460915, -0.0005801316001452506, 0.050976332277059555, -0.13758008182048798, 0.008144961670041084, -0.07144324481487274, 0.07984496653079987, 0.20560353994369507, 0.12131182104349136, -0.15154722332954407, 0.12701305747032166, 0.057884033769369125, -0.030492791905999184, 0.2575054168701172, 0.1516478955745697, -0.09507652372121811, 0.243007093667984, -0.01079089380800724, 0.05876614898443222, -0.18284833431243896, 0.06970695406198502, 0.20216265320777893, 0.24624517560005188, -0.1467048078775406, -0.14390528202056885, -0.3118532598018646, -0.03076883777976036, 0.11946041136980057, 0.1174568310379982, -0.11753267049789429, -0.1308218538761139, -0.1941116601228714, 0.08344056457281113, -0.08782529085874557, 0.005136117804795504, -0.1611676812171936, -0.02151624485850334, 0.0338842011988163, 0.06470748782157898, 0.1916649043560028, 0.08885174244642258, 0.05375818908214569, -0.012694207951426506, 0.09571529924869537, -0.05594778433442116, -0.025495829060673714, 0.04516284167766571, 0.07795428484678268, 0.03449823334813118, -0.2547002136707306, 0.16033151745796204, 0.18245725333690643, -0.09429624676704407, -0.06870074570178986, 0.06603289395570755, 0.004457089118659496, 0.05919132009148598, 0.03372851014137268, 0.2654377222061157, -0.143921360373497, -0.22306925058364868, 0.12054571509361267, 0.1213601753115654, -0.13115642964839935, 0.0586782842874527, -0.11626805365085602, -0.1095249354839325, -0.28859537839889526, 0.08803558349609375, 0.019886178895831108, 0.17749755084514618, 0.05968576297163963, -0.0683305412530899, -0.2909713089466095, 0.09976829588413239, 0.08848211914300919, 0.26908788084983826, -0.16892807185649872, 0.003785647451877594, 0.060946881771087646, -0.06382530182600021, 0.08434981107711792, 0.31953713297843933, -0.09969588369131088, -0.015907440334558487, 0.021785549819469452, 0.16523714363574982, 0.26285257935523987, 0.1037435233592987, 0.12297793477773666, -0.023046333342790604, 0.1255519688129425, -0.24665957689285278, -0.23205064237117767, 0.16871343553066254, -0.04306793585419655, 0.04312901571393013, -0.01680794544517994, 0.196880042552948, 0.1787736862897873, -0.16130594909191132, -0.07737848162651062, -0.11798610538244247, 0.12201784551143646, -0.03961135074496269, -0.025526776909828186, -0.01728198491036892, -0.004694898147135973, -0.09768880903720856, -0.09117285907268524, 0.3303609788417816, 0.11959996074438095, 0.044376473873853683, 0.014459986239671707, -0.08006980270147324, -0.16084228456020355, 0.1943177878856659, -0.03735947981476784, 0.16524279117584229, -0.2462816685438156, -0.001559918513521552, -0.13897277414798737, 0.10680922865867615, 0.08846580982208252, 0.14560966193675995, -0.04676005244255066, -0.09343814104795456, -0.17255663871765137, -0.09708113223314285, 0.013848320581018925, 0.15795627236366272, -0.20506997406482697, -0.07650098949670792, -0.10981849581003189, 0.3680170178413391, 0.20587702095508575, -0.1619689166545868, 0.12051541358232498, 0.09865765273571014, 0.06260883808135986, -0.05318943411111832, 0.0025278266984969378, 0.03139621019363403, -0.16693057119846344, -0.10190282016992569, 0.015773143619298935, 0.08746063709259033, -0.0129885608330369, -0.12764239311218262, -0.09302153438329697, -0.005753735080361366, -0.09277134388685226, 0.14993658661842346, 0.040280748158693314, -0.03993341326713562, 0.008998995646834373, 0.012009005062282085, 0.0577135905623436, 0.021483633667230606, 0.0719754695892334, -0.03374994173645973, 0.059897083789110184, 0.0022116766776889563, 0.07187552005052567, -0.13756775856018066, 0.011003414168953896, 0.11684286594390869, -0.1067485362291336, -0.09228681027889252, 0.0965951457619667, -0.10141944140195847, 0.12550170719623566, 0.14589302241802216, 0.18265584111213684, -0.0760185644030571, 0.15753406286239624, -0.023929990828037262, 0.06204063072800636, 0.10877940058708191, 0.12631842494010925, 0.07497374713420868, 0.15665996074676514, -0.11655457317829132, 0.10278217494487762, 0.049168910831213, 0.019198806956410408, 0.07780120521783829, -0.04025791957974434, -0.11073911935091019, 0.06370735913515091, -0.05455033481121063, 0.13425348699092865, -0.23514842987060547, -0.005129361059516668, 0.02466007135808468, 0.07029839605093002, 0.17729850113391876, 0.056791339069604874, 0.03233721852302551, 0.061513256281614304, 0.08527638018131256, -0.08428781479597092, 0.024617725983262062, -0.11453060805797577, 0.11035528779029846, 0.1975918412208557, 0.20198680460453033, 0.0693097710609436, -0.005518063437193632, 0.1299324780702591, 0.05248387157917023, 0.07388192415237427, 0.10301576554775238, 0.10843897610902786, 0.13672992587089539, -0.1613355576992035, 0.03723447769880295, -0.2928162217140198, 0.12240120023488998, -0.10818713903427124, 0.06348014622926712, -0.1672990620136261, -0.13853806257247925, -0.007193899247795343, 0.12800730764865875, 0.01095856074243784, 0.1570976972579956, -0.10232613980770111, 0.05998069792985916, -0.0897989571094513, 0.1612836718559265, -0.04481910914182663, 0.32746952772140503, 0.24399112164974213, 0.2685767710208893, -0.019046761095523834, -0.023683467879891396, -0.20915308594703674, -0.023708635941147804, 0.0028598650824278593, 0.02006451226770878, -0.1289762258529663, 0.11097215861082077, -0.04772444814443588, -0.13780231773853302, -0.01735309697687626, 0.047389134764671326, 0.0350332148373127, 0.016290219500660896, -0.09982578456401825, -0.21934564411640167, 0.04211023077368736, 0.09419763833284378, -0.044954657554626465, -0.07677649706602097, -0.06911690533161163, -0.07860034704208374, -0.09318357706069946, -0.14979693293571472, 0.227961003780365, -0.15757529437541962, -0.046767715364694595, -0.06980764120817184, 0.007379504386335611, 0.05269952118396759, 0.030467504635453224, -0.13112589716911316, 0.09828735142946243, -0.07564878463745117, -0.07121218740940094, 0.10713325440883636, 0.14908301830291748, 0.029697023332118988, -0.031009215861558914, -0.00424565514549613, -0.031164931133389473, -0.016951046884059906, -0.01527120266109705, -0.1524607539176941, 0.10321120917797089, -0.02974049188196659, -0.018011216074228287, -0.16218067705631256, -0.16847199201583862, 0.039070598781108856, -0.09629850089550018, -0.049763023853302, 0.10176556557416916, 0.11943447589874268, -0.011289642192423344, -0.06984198838472366, 0.11342670768499374, 0.10284070670604706, 0.1723405420780182, -0.005133533850312233, -0.10575713217258453, -0.16262701153755188, -0.12412544339895248, 0.1934276819229126, 0.090553417801857, 0.13923723995685577, 0.11554223299026489, -0.023611193522810936, -0.09739507734775543, 0.1582326740026474, 0.050894539803266525, 0.015380145981907845, -0.1381465494632721, 0.09439676254987717, 0.05105305090546608, 0.09084759652614594, 0.0022862344048917294, -0.04336763173341751, -0.169874906539917, -0.10447030514478683, 0.016343675553798676, 0.029450951144099236, -0.09367717057466507, 0.13140882551670074, -0.04438100382685661, 0.11085530370473862, -0.12051762640476227, 0.09315553307533264, -0.059713754802942276, -0.10328268259763718, -0.04865006357431412, -0.04615071043372154, 0.12894023954868317, 0.01745794340968132, 0.13098248839378357, 0.24584656953811646, 0.011256853118538857, -0.09606818854808807, -0.16014061868190765, 0.06270714849233627, -0.060961563140153885, -0.020350174978375435, -0.061847984790802, -0.03253606706857681, -0.12015524506568909, 0.020577188581228256, 0.17654593288898468, -0.10239018499851227, -0.10003598034381866, -0.08808844536542892, 0.2671023905277252, -0.19978469610214233, -0.10706637054681778, 0.15012022852897644, -0.17402507364749908, 0.23269060254096985, -0.14236804842948914, 0.02927326038479805, -0.10897931456565857, 0.0457315519452095, -0.009006334468722343, 0.057624321430921555, -0.12740468978881836, -0.013830466195940971, -0.17261533439159393, 0.2537686228752136, 0.07854622602462769, -0.11835722625255585, 0.1012631431221962, -0.08939042687416077, 0.010826225392520428, 0.15613821148872375, -0.06488758325576782, -0.01550593413412571, -0.035911351442337036, -0.14328967034816742, -0.08991742879152298, 0.30125901103019714, 0.05236870422959328, 0.11873608827590942, -0.26581233739852905, -0.02352265827357769, 0.12905734777450562, -0.13073651492595673, -0.16250646114349365, -0.025964457541704178, 0.12550288438796997, -0.13665986061096191, -0.24940434098243713, 0.20112420618534088, 0.04921617731451988, 0.11741264909505844, -0.22123557329177856, -0.08878353983163834, -0.026850955560803413, -0.21934223175048828, -0.062413088977336884, 0.1338169425725937, -0.016331331804394722, -0.053524043411016464, -0.08740757405757904, 0.0017364106606692076, -0.1395730972290039, -0.11307268589735031, -0.08210369944572449, -0.005244084168225527, -0.005477850791066885, -0.134810209274292, 0.059864528477191925, 0.09342720359563828, 0.011021383106708527, -0.04239989444613457, 0.11106396466493607, 0.16046911478042603, -0.01395274605602026, 0.2938370406627655, 0.1856336146593094, -0.04884606599807739, -0.05232211574912071, 0.10756301879882812, -0.017551425844430923, -0.09042477607727051, -0.0480782575905323, 0.0761859267950058, -0.08802159130573273, -0.11346948891878128, 0.012454945594072342, -0.04165346547961235, -0.2048431932926178, -0.07009054720401764, -0.15101896226406097, -0.056711941957473755, 0.016913877800107002, -0.11416547000408173, -0.0014964711153879762, 0.035208810120821, -0.007809477858245373, -0.07007162272930145, 0.004198858514428139, -0.10208795219659805, 0.01968664862215519, 0.10314592719078064, 0.048001717776060104, -0.03456991910934448, -0.07061395794153214, -0.10063254088163376, -0.21897494792938232, -0.031366657465696335, 0.20952758193016052, 0.1579820066690445, -0.023967349901795387, -0.03684517741203308, -0.022819513455033302, 0.021148784086108208, -0.021496685221791267, -0.08995495736598969, -0.03383050113916397, 0.11076628416776657, 0.0535472072660923, -0.05790672451257706, -0.10285837948322296, 0.035984981805086136, 0.12699681520462036, 0.08114075660705566, -0.09182828664779663, 0.1558511108160019, -0.07147539407014847, -0.046280574053525925, -0.23494142293930054, 0.019955001771450043, -0.14105522632598877, -0.04460131376981735, 0.04542872682213783, -0.08280278742313385, -0.07279149442911148, 0.07158111780881882, 0.02686825767159462, -0.045102205127477646, -0.037520863115787506, 0.2885279059410095, 0.18167108297348022, 0.06923368573188782, 0.004641896113753319, 0.1436108946800232, 0.0858045294880867, -0.11330004781484604, -0.11452294886112213, 0.012359511107206345, -0.027013521641492844, -0.020821966230869293, -0.045387186110019684, 0.03353739529848099, 0.19150501489639282, 0.14738120138645172, -0.09890299290418625, 0.1893477737903595, 0.03139475733041763, -0.2012251764535904, -0.06994011998176575, -0.14081691205501556, -0.08653461933135986, 0.20722512900829315, -0.10018293559551239, -0.1691906601190567, -0.15616410970687866, -0.09788690507411957, 0.31376776099205017, 0.06897440552711487, -0.05098900571465492, -0.10596870630979538, -0.238063782453537, 0.2667771577835083, -0.02137664519250393, -0.0066884225234389305, 0.045951757580041885, 0.0049279965460300446, -0.1387806236743927, 0.08092384040355682, -0.12286020815372467, 0.1891154646873474, 0.07720621675252914, -0.17172890901565552, 0.034672949463129044, -0.2245962768793106, 0.17458458244800568, -0.04040615260601044, -0.3952825665473938, 0.31627944111824036, -0.016235653311014175, -0.11783338338136673, -0.1926446557044983, 0.20604616403579712, -0.0703810602426529, -0.10263605415821075, -0.08106347173452377, 0.17372915148735046, 0.07420703023672104, -0.06832018494606018, -0.022322341799736023, 0.10487257689237595, 0.026229728013277054, 0.11070900410413742, 0.027628030627965927, 0.16876943409442902, -0.07224071025848389, 0.06433948129415512, 0.0020547546446323395, -0.06448835879564285, 0.005000254139304161, -0.003554970258846879, -0.006879785563796759, 0.08407580852508545, -0.10805875808000565, 0.04881533607840538, -0.016143549233675003, 0.010923711583018303, 0.08917681127786636, -0.027057591825723648, 0.13007616996765137, 0.13604652881622314, 0.049422889947891235, 0.06530363112688065, -0.048018570989370346, 0.037693753838539124, 0.029663659632205963, -0.12886284291744232, 0.1568133383989334, 0.031040463596582413, 0.011235546320676804, -0.09892072528600693, 0.029425201937556267, 0.07379946112632751, 0.01100024115294218, -0.07095865160226822, -0.053066279739141464, 0.021206310018897057, 0.13098406791687012, 0.08998680859804153, -0.16319137811660767, 0.04381018131971359, -0.013789947144687176, -0.16416266560554504, -0.022960694506764412, -0.03328786790370941, 0.08090932667255402, -0.06342250853776932, 0.058979906141757965, -0.02573309652507305, -0.05336218327283859, 0.21032387018203735, -0.09686952084302902, -0.06382687389850616, 0.1922120749950409, 0.010666370391845703, -0.018147718161344528, -0.09868445247411728, 0.060107674449682236, -0.059585392475128174, 0.11009188741445541, -0.008188370615243912, 0.14689365029335022, -0.17804084718227386, -0.03264462575316429, -0.039989132434129715, 0.14880023896694183, 0.02813337929546833, 0.1325071156024933, -0.06721338629722595, -0.0541139580309391, 0.027984438464045525, -0.017333168536424637, -0.07860453426837921, -0.07674750685691833, -0.17397671937942505, 0.13266487419605255, -0.0020915046334266663, 0.24076783657073975, 0.12662994861602783, 0.15914468467235565, -0.03308684006333351, 0.035619474947452545, 0.06791041791439056, -0.03039078414440155, 0.003775303717702627, -0.06340788304805756, 0.019365156069397926, -0.05435488000512123, -0.19641762971878052, 0.025494668632745743, -0.2302437722682953, 0.19606398046016693, -0.07070179283618927, 0.05893249064683914, -0.10051822662353516, 0.12826646864414215, -0.09281262755393982, 0.0643453523516655, 0.023290682584047318, 0.0757356658577919, 0.048673275858163834, 0.07310246676206589, 0.10452528297901154, 0.08454284816980362, 0.10444672405719757, -0.034865133464336395, -0.0056937625631690025, 0.01644147001206875, 0.07512151449918747, -0.048401158303022385, -0.10814015567302704, 0.0004102422099094838, 0.013389724306762218, 0.039863765239715576, -0.23274125158786774, 0.09005458652973175, -0.1058991327881813, -0.16555503010749817, -0.10125403106212616, -0.06390445679426193, -0.005264926236122847, -0.10300050675868988, 0.16665251553058624, 0.1732948273420334, 0.015726152807474136, 0.09621410816907883, -0.07545602321624756, 0.021459730342030525, 0.07906726747751236, 0.03872598707675934, -0.06265884637832642, -0.1096244603395462, 0.0754099190235138, 0.049433186650276184, 0.11645932495594025, -0.07305572181940079, 0.06060580536723137, -0.0841154083609581, 0.029284639284014702, 0.03271659463644028, 0.18021872639656067, 0.06379201263189316, 0.18456465005874634, 0.10817573964595795, -0.0559023879468441, 0.06972815841436386, -0.12173502892255783, 0.05800913646817207, 0.059388719499111176, 0.14040762186050415, -0.060148805379867554, -0.06951560825109482, 0.06083964183926582, 0.13803432881832123, 0.11866619437932968, 0.030375022441148758, 0.050704989582300186, -0.07698920369148254, -0.26893121004104614, 0.3256986439228058, 0.3075585961341858, -0.5372385382652283, 0.07700617611408234, -0.8617079257965088, -0.377776563167572, -0.3427404761314392, 0.8363648056983948, -0.9583515524864197, -0.27320003509521484, -1.0535268783569336, 0.21924030780792236, -0.7342211008071899, 0.29889988899230957, -0.759587287902832, -0.060108575969934464, -0.0049032894894480705, 0.09048490226268768, 0.1788710057735443, 0.23436424136161804, -0.14113131165504456, 0.10938998311758041, -0.0049409386701881886, -0.1345372349023819, -0.07801008969545364, 0.21179330348968506, 0.04754345864057541, 0.028674373403191566, 0.03929898515343666, -0.1520926058292389, -0.12376990169286728, 0.06337897479534149, -0.1507512480020523, -0.06932910531759262, -0.002124813850969076, -0.22702546417713165, 0.08952898532152176, 0.025839269161224365, -0.21835552155971527, 0.16218407452106476, -0.06643009930849075, 0.10807967931032181, 0.36857885122299194, -0.028717195615172386, 0.0879187136888504, -0.07944026589393616, 0.16545599699020386, -0.13657276332378387, -0.1709783673286438, 0.009887048043310642, 0.1588299572467804, 0.0809471383690834, 0.13958385586738586, 0.0005127511103637516, 0.012967417947947979, -0.011169381439685822, 0.08939145505428314, -0.178991436958313, -0.19505684077739716, -0.06079285964369774, 0.12075261026620865, 0.08750918507575989, 0.018893804401159286, 0.07222838699817657, 0.20743457973003387, -0.12574993073940277, -0.31679365038871765, -0.13823284208774567, -0.137237548828125, 0.013365115970373154, 0.08101638406515121, -0.15228848159313202, 0.10777386277914047, 0.1617228090763092, 0.0552758164703846, 0.07685916125774384, -0.3076975643634796, -0.08237412571907043, -0.11349380761384964, 0.33236920833587646, 0.06453011184930801, -0.23066677153110504, -0.30227696895599365, 0.0764489471912384, 0.0054856245405972, -0.03438389301300049, 0.2644796073436737, 0.08398666232824326, 0.06588617712259293, -0.022556569427251816, 0.24914664030075073, -0.19375057518482208, -0.14385709166526794, -0.09982065111398697, -0.1830974519252777, -0.09107984602451324, -0.07571505010128021, -0.31093311309814453, -0.10977371782064438, -0.023535434156656265, -0.09266599267721176, -0.06017424166202545, -0.031046880409121513, 0.10123421251773834, 0.3120113015174866, -0.15914836525917053, -0.1823851615190506, -0.19139310717582703, -0.1811872273683548, 0.06970086693763733, 0.03307110071182251, 0.15606656670570374, -0.31120172142982483, 0.15127140283584595, -0.02106424607336521, 0.05310014262795448, 0.3486742675304413, -0.03967106342315674, -0.31655314564704895, 0.28628987073898315, 0.06462927162647247, -0.2489204853773117, 0.3326827585697174, -0.1435588300228119, 0.20936717092990875, -0.1079028770327568, 0.39929041266441345, 0.0016956290928646922, -0.11839812248945236, -0.07149206101894379, 0.2524641156196594, 0.1521088182926178, 0.042868658900260925, 0.09437757730484009, -0.08436690270900726, 0.0034179468639194965, 0.39797306060791016, -0.3279217481613159, 0.1775950938463211, -0.17330190539360046, 0.24591423571109772, 0.06547170132398605, 0.2615091800689697, 0.1112990602850914, 0.14536815881729126, -0.2310219556093216, -0.19578313827514648, -0.2114337533712387, -0.1795220524072647, 0.001325025805272162, -0.07971199601888657, -0.04926297068595886, 0.10066179931163788, 0.23825228214263916, 0.0025932458229362965, -0.19889499247074127, 0.13535574078559875, -0.01847618818283081, 0.17832893133163452, -0.07237450778484344, 0.0839277058839798, 0.06327749043703079, 0.04341812804341316, 0.008940538391470909, -0.18518558144569397, -0.028701556846499443, -0.017328865826129913, -0.09562525898218155, -0.13779135048389435, 0.13954631984233856, 0.17747102677822113, 0.27535730600357056, -0.06787164509296417, 0.1438325196504593, -0.14292889833450317, -0.03801632672548294, -0.11848871409893036, -0.16354651749134064, 0.09217553585767746, 0.059591446071863174, -0.10210791230201721, -0.0329570472240448, -0.0032941331155598164, 0.12846697866916656, 0.2053988128900528, -0.03993521258234978, 0.15130457282066345, -0.03924056887626648, 0.09922201931476593, -0.09986428171396255, 0.04734613746404648, 0.1652524173259735, 0.27308952808380127, -0.31255483627319336, -0.2582632601261139, -0.23670803010463715, -0.07368280738592148, 0.022622695192694664, 0.21321815252304077, -0.16141186654567719, 0.2557016909122467, 0.08572975546121597, -0.1515807956457138, -0.08450969308614731, -0.1515606790781021, 0.09115224331617355, -0.15582609176635742, -0.15822288393974304, -0.04926378279924393, -0.1544753462076187, -0.08314617723226547, 0.09946700185537338, -0.08114661276340485, -0.019146915525197983, 0.2557466924190521, -0.0911390408873558, -0.1074821949005127, -0.1823020726442337, -0.29329314827919006, 0.2544771432876587, -0.2806142568588257, -0.06449878960847855, -0.18784581124782562, 0.11688101291656494, -0.08042002469301224, -0.10336504876613617, 0.35177701711654663, -0.2890380024909973, 0.10168088972568512, 0.0391794852912426, -0.10050076991319656, 0.18647952377796173, 0.15031099319458008, -0.04207148775458336, 0.09301874786615372, 0.13221386075019836, 0.2919672727584839, 0.03440254554152489, 0.04941244423389435, 0.2561957538127899, 0.22781914472579956, -0.2473250925540924, -0.2693634331226349, -0.2971764802932739, 0.06165700778365135, -0.0684039443731308, 0.06319963186979294, -0.15334810316562653, 0.3380092978477478, -0.046684011816978455, 0.039405275136232376, -0.3705701529979706, 0.05419685319066048, 0.3945969343185425, 0.098260797560215, 0.2421715408563614, -0.26299744844436646, -0.19292156398296356, -0.054904669523239136, -0.3510900139808655, 0.15449738502502441, -0.17989811301231384, 0.029165420681238174, 0.21465037763118744, -0.11372549086809158, 0.07432514429092407, 0.12007497251033783, -0.1572985053062439, 0.2784954607486725, 0.06626208871603012, -0.08739709109067917, -0.019789591431617737, -0.025491885840892792, 0.03885742649435997, -0.07392111420631409, -0.14389845728874207, 0.055812861770391464, 0.08010868728160858, 0.12425205111503601, 0.05105772614479065, -0.017634408548474312, 0.06630095094442368, -0.13049420714378357, 0.04153161868453026, -0.21548934280872345, -0.11894938349723816, -0.09052623063325882, 0.17362849414348602, 0.005316722672432661, -0.12558768689632416, -0.09169871360063553, -0.13119424879550934, 0.12854614853858948, -0.11921859532594681, -0.04011654108762741, 0.13809068500995636, 0.09229887276887894, -0.06587247550487518, -0.13141827285289764, 0.13231994211673737, 0.05872560292482376, 0.040035586804151535, 0.2184978872537613, 0.092652328312397, -0.18909691274166107, -0.16540174186229706, -0.06535744667053223, 0.18612606823444366, -0.06746169179677963, -0.0015575479483231902, -0.10040787607431412, -0.2187206745147705, 0.0924551859498024, 0.13564938306808472, 0.14238296449184418, 0.06320241093635559, -0.14769423007965088, -0.2056269347667694, 0.03187607601284981, 0.1538776159286499, -0.008079026825726032, 0.013201739639043808, -0.19291135668754578, 0.10218878835439682, -0.06552216410636902, -0.13117055594921112, -0.16995026171207428, 0.10863534361124039, 0.13499873876571655, -0.021874528378248215, 0.05316629633307457, 0.04395683854818344, 0.19575142860412598, -0.20599764585494995, -0.05270393192768097, 0.016741378232836723, 0.0035908010322600603, 0.06260187923908234, -0.08293963968753815, 0.0395204983651638, -0.16240742802619934, 0.2289348989725113, 0.10726633667945862, 0.09255710244178772, -0.03477120399475098, -0.06011130288243294, -0.006004850845783949, 0.11598978191614151, -0.0700603500008583, -0.005455840844660997, -0.08261208236217499, 0.01526616606861353, -0.06041056662797928, 0.09274782985448837, -0.17156121134757996, 0.05593540519475937, -0.18264688551425934, -0.18061360716819763, -0.0676673874258995, 0.1011313945055008, -0.048910290002822876, -0.17602187395095825, 0.1249682828783989, 0.1596812605857849, 0.10468219965696335, 0.20087385177612305, 0.02753758430480957, -0.06140469014644623, -0.14099188148975372, -0.04883907735347748, 0.09460935741662979, 0.006645473185926676, 0.13726861774921417, -0.008949313312768936, -0.03019685670733452, -0.06531871110200882, -0.17529428005218506, 0.033363983035087585, 0.10161473602056503, 0.09022542089223862, 0.0068605076521635056, -0.06608624011278152, 0.21993693709373474, 0.05126568675041199, -0.16221797466278076, -0.12265565246343613, 0.06764891743659973, 0.06346458196640015, -0.030449215322732925, -0.08696693181991577, -0.013708071783185005, 0.13175389170646667, -0.13813777267932892, -0.01187859382480383, -0.03586188331246376, -0.10096537321805954, -0.10382544994354248, 0.10179360955953598, 0.19310523569583893, 0.056177642196416855, -0.02616676688194275, -0.05081390589475632, 0.11435546725988388, 0.05231265723705292, 0.0734039843082428, 0.183292955160141, 0.14200493693351746, -0.07137544453144073, -0.009145686402916908, 0.026905613020062447, 0.04489147663116455, 0.04248155653476715, -0.14511550962924957, -0.2744709253311157, 0.056410714983940125, -0.00899626687169075, 0.07781019806861877, 0.01441696472465992, -0.1696079820394516, 0.07566794753074646, -0.01935766264796257, -0.04089745879173279, -0.06964927911758423, 0.07499419897794724, 0.15160773694515228, -0.06986202299594879, -0.12346650660037994, -0.02164890617132187, -0.055681660771369934, 0.10215014964342117, 0.1256038099527359, -0.041892874985933304, -0.14394137263298035, 0.15704557299613953, -0.061146024614572525, 0.11031565070152283, -0.05758075788617134, 0.11114368587732315, 0.17216788232326508, -0.2139793187379837, 0.07107483595609665, 0.14798004925251007, -0.0067909774370491505, -0.011932579800486565, 0.0350043959915638, -0.06348402798175812, -0.08212480694055557, -0.060351356863975525, 0.25541478395462036, 0.1455986350774765, 0.009979134425520897, -0.2207299917936325, -0.08276855945587158, -0.0020820905920118093, 0.04355324059724808, 0.04621914029121399, 0.1004244014620781, -0.02006782591342926, -0.07284028828144073, -0.1312774270772934, -0.05427318438887596, 0.069607213139534, 0.08895643800497055, -0.10498829185962677, -0.08707302063703537, 0.11071647703647614, 0.038420818746089935, 0.013027757406234741, -0.05230973660945892, 0.05943838879466057, 0.17881576716899872, 0.004354150500148535, -0.003943279385566711, 0.054272398352622986, 0.01530899852514267, 0.026950160041451454, -0.11248920112848282, 0.1102023795247078, 0.11094328761100769, 0.2023809403181076, 0.05190576612949371, -0.06407563388347626, -0.12541106343269348, 0.0464453361928463, 0.18999171257019043, -0.05832437053322792, 0.020666364580392838, 0.0998057946562767, 0.13935095071792603, 0.18261785805225372, -0.06346125155687332, -0.1493275910615921, -0.07685655355453491, 0.07837878912687302, 0.07854719460010529, 0.11150779575109482, -0.16215547919273376, -0.25208038091659546, -0.14719617366790771, 0.23639412224292755, -0.18118548393249512, -0.21024832129478455, 0.06800980865955353, -0.0672348216176033, -0.1984959840774536, 0.24329186975955963, 0.1528586596250534, 0.1695791333913803, -0.09484349191188812, -0.10931361466646194, -0.0520218163728714, 0.26751917600631714, 0.12332271039485931, 0.038016390055418015, -0.15217816829681396, 0.08448436111211777, 0.170937180519104, -0.0747869685292244, -0.1092357486486435, -0.10490380972623825, 0.29202786087989807, -0.10730979591608047, -0.21954882144927979, 0.31047287583351135, 0.08663205057382584, -0.26360565423965454, -0.23918406665325165, 0.011092372238636017, -0.02445857971906662, -0.13754312694072723, 0.025907306000590324, 0.028043370693922043, 0.0698084607720375, -0.21428193151950836, -0.19336070120334625, -0.04790768027305603, 0.0684407651424408, -0.20986191928386688, -0.026987561956048012, 0.10937593132257462, -0.08580801635980606, 0.08906356245279312, 0.025202682241797447, -0.02122564986348152, 0.04283078387379646, -0.14048869907855988, 0.10463021695613861, 0.09040765464305878, -0.06013188883662224, -0.07943294197320938, 0.09902393072843552, 0.04215961694717407, -0.0670904889702797, -0.073635533452034, -0.08868008852005005, 0.05463135242462158, -0.027934053912758827, -0.05723484233021736, 0.015470709651708603, 0.07302962988615036, 0.18342529237270355, 0.03386674076318741, -0.1363716423511505, 0.10737920552492142, -0.10313336551189423, -0.12357074022293091, -0.08322956413030624, 0.10094566643238068, 0.15071335434913635, -0.04669412598013878, -0.11953437328338623, -0.061375126242637634, -0.0264685470610857, 0.11419656872749329, -0.22319571673870087, -0.10223665833473206, -0.14499735832214355, 0.051656268537044525, 0.16231855750083923, -0.0658552497625351, -0.09158027172088623, 0.30335938930511475, 0.033780571073293686, -0.09883581101894379, -0.18475747108459473, 0.18344269692897797, 0.03661729022860527, -0.08849629014730453, 0.0415755994617939, 0.042456578463315964, -0.19699130952358246, 0.09703509509563446, 0.039880625903606415, 0.10546676069498062, 0.04168073460459709, -0.13606366515159607, 0.13296250998973846, 0.08402673900127411, -0.15454939007759094, -0.127820685505867, 0.012536142952740192, 0.05363229662179947, -0.09081988036632538, 0.04543351009488106, -0.051545001566410065, -0.06311776489019394, 0.08890513330698013, -0.12847810983657837, -0.19796976447105408, 0.09714782983064651, 0.042871393263339996, -0.17556583881378174, -0.1065673902630806, 0.14111405611038208, 0.007143618538975716, -0.13109691441059113, -0.0727740079164505, -0.10773421823978424, 0.12089724838733673, 0.0443718358874321, 0.23776614665985107, -0.2636399269104004, 0.0716492161154747, -0.11914888024330139, 0.3068164587020874, -0.1959780901670456, 0.24029213190078735, 0.11596519500017166, 0.03967832028865814, 0.05296472832560539, 0.009479844011366367, -0.15769146382808685, -0.2289678454399109, -0.1984301209449768, 0.0795813500881195, 0.004855619743466377, -0.30166688561439514, 0.05071449652314186, -0.04571869969367981, 0.12281829118728638, 0.1658632457256317, 0.06158865615725517, -0.08842594921588898, -0.04597194865345955, 0.09690885245800018, 0.08913461863994598, -0.05269113555550575, 0.07319353520870209, -0.22267812490463257, -0.11705547571182251, -0.20954693853855133, 0.5150671005249023, -0.12457693368196487, 0.23380815982818604, -0.22800442576408386, -0.0669083297252655, -0.058214228600263596, -0.18181023001670837, 0.06634780019521713, -0.16421332955360413, 0.05220996215939522, 0.15560637414455414, 0.03486361354589462, -0.10702712088823318, -0.006351415999233723, 0.14055277407169342, -0.4836452007293701, -0.12579889595508575, -0.03684023767709732, 0.3270171582698822, 0.2318013310432434, -0.31361034512519836, -0.039900168776512146, -0.1590278148651123, 0.11857511848211288, -0.0978800430893898, 0.10966035723686218, -0.06577835977077484, -0.09180904924869537, -0.036268722265958786, 0.1280606985092163, -0.10848357528448105, -0.0017960460390895605, -0.02209172025322914, -0.22877532243728638, 0.07080207765102386, 0.11528638750314713, -0.009445114061236382, -0.15895028412342072, 0.1111801490187645, -0.14069393277168274, 0.0847405269742012, 0.21685680747032166, -0.050548702478408813, 0.15671205520629883, 0.06177490949630737, -0.30260899662971497, 0.11249732971191406, -0.12878677248954773, 0.2754253149032593, 0.006018488202244043, 0.01082024909555912, -0.14592181146144867, -0.06372655183076859, 0.469436913728714, -0.17676496505737305, 0.053685761988162994, -0.21113303303718567, 0.16017170250415802, -0.1425749510526657, 0.01162885781377554, -0.14615869522094727, 0.15525291860103607, 0.22311335802078247, -0.1186215877532959, 0.0458127036690712, -0.10109482705593109, 0.17388758063316345, 0.1273135393857956, -0.015172939747571945, 0.017718752846121788, -0.08952836692333221, 0.12291021645069122, 0.08805922418832779, 0.011441273614764214, 0.2090378850698471, 0.08658947795629501, 0.07180718332529068, -0.08787396550178528, 0.03946603089570999, 0.041238509118556976, 0.00987642165273428, 0.04231145232915878, 0.042895443737506866, -0.218030646443367, -0.02408786676824093, -0.05875534564256668, -0.09304851293563843, -0.018440717831254005, -0.22789542376995087, -0.08571464568376541, -0.24621424078941345, -0.17110706865787506, 0.04079410061240196, -0.1408504992723465, 0.06148259714245796, 0.10348346084356308, -0.06277362257242203, 0.07788005471229553, 0.19551710784435272, 0.06166580691933632, -0.09710061550140381, -0.18670156598091125, 0.1731354296207428, 0.15104010701179504, 0.004572281613945961, 0.03264199569821358, 0.020928019657731056, 0.009041803888976574, -0.17053136229515076, -0.08674175292253494, 0.07450734823942184, 0.12694166600704193, -0.10155603289604187, 0.10768953710794449, -0.13660837709903717, 0.0059906477108597755, -0.05094856023788452, -0.017612705007195473, 0.1021096259355545, 0.07176069915294647, 0.06895957887172699, 0.012378791347146034, 0.15336744487285614, 0.08800891041755676, -0.033331308513879776, 0.06881039589643478, 0.09816315025091171, 0.13322627544403076, 0.1910070925951004, -0.07447044551372528, 0.012867889367043972, -0.06213301792740822, 0.017872896045446396, 0.09068078547716141, 0.1404835730791092, 0.12589658796787262, -0.25559723377227783, 0.04372602328658104, 0.10027477890253067, -0.06352812796831131, 0.08720478415489197, 0.12002383917570114, -0.10063858330249786, -0.09453707188367844, -0.02409232221543789, 0.1438644677400589, 0.1637420803308487, 0.025204075500369072, -0.08323248475790024, 0.020219819620251656, -0.030350716784596443, 0.1952866166830063, 0.0052271634340286255, -0.01593668945133686, 0.07682409137487411, 0.1907823383808136, -0.1332017183303833, -0.21769043803215027, 0.06451481580734253, 0.1731201410293579, -0.2606436014175415, -0.1107013002038002, -0.07038115710020065, 0.037272315472364426, 0.023574713617563248, 0.009529468603432178, -0.031084422022104263, -0.11811722815036774, -0.13612601161003113, 0.1342829018831253, -0.05516105890274048, -0.07052729278802872, 0.24641554057598114, -0.08764621615409851, -0.07805991172790527, 0.0024110511876642704, 0.08234216272830963, -0.11344613134860992, 0.10538240522146225, 0.0019453365821391344, -0.11621981859207153, -0.13030697405338287, -0.08531025797128677, 0.06750882416963577, 0.23848755657672882, 0.13360358774662018, -0.09033577889204025, -0.007089006714522839, -0.24376198649406433, -0.043694037944078445, -0.021695395931601524, -0.0758008286356926, 0.024180922657251358, -0.22169974446296692, -0.1812869906425476, -0.1621573567390442, 0.05328741297125816, 0.30229413509368896, -0.22978675365447998, 0.01060461811721325, 0.10017307847738266, 0.04199350252747536, -0.1380123347043991, -0.1904653161764145, -0.14047695696353912, 0.2482612133026123, -0.15702438354492188, -0.2574930489063263, 0.26270151138305664, 0.03768032044172287, -0.11620144546031952, -0.08665905147790909, -0.0506741926074028, -0.1514868140220642, 0.31686314940452576, 0.16156227886676788, 0.04173034802079201, -0.236277237534523, 0.07751312851905823, -0.060669753700494766, -0.061125509440898895, -0.019961856305599213, 0.07422147691249847, -0.017981497570872307, 0.1490143984556198, 0.24246333539485931, -0.007321973331272602, -0.06430229544639587, 0.022074855864048004, 0.14652694761753082, -0.07154937833547592, 0.17471390962600708, -0.18366087973117828, -0.014358945190906525, -0.08619597554206848, -0.13316117227077484, 0.12934646010398865, -0.06960152089595795, -0.08301076292991638, -0.1552591770887375, -0.05354783311486244, 0.10886266827583313, 0.1862678974866867, 0.2045767605304718, -0.12046810984611511, -0.11713951081037521, 0.1423085629940033, 0.11708592623472214, -0.11399899423122406, 0.006297454237937927, 0.020187484100461006, 0.13947391510009766, 0.10268133133649826, -0.09448958933353424, 0.09415381401777267, 0.16231955587863922, -0.28577107191085815, 0.02562098763883114, -0.0870281457901001, -0.0005174482357688248, -0.012369280681014061, -0.0014809634303674102, 0.11291022598743439, 0.23771770298480988, -0.05423148348927498, -0.17863447964191437, 0.2634393572807312, 0.05110178887844086, -0.2679372727870941, -0.17380182445049286, -0.05309005081653595, 0.20091557502746582, -0.04780115932226181, 0.13053089380264282, 0.045326728373765945, -0.18819473683834076, -0.026531536132097244, 0.06418333202600479, 0.12533821165561676, -0.025799741968512535, -0.158097505569458, 0.05177609622478485, 0.05888320133090019, -0.17564252018928528, 0.14263854920864105, 0.044282957911491394, -0.13375411927700043, -0.07144615799188614, -0.06979528069496155, 0.24615934491157532, 0.17352257668972015, 0.022298913449048996, -0.2742254436016083, -0.27769798040390015, 0.05418796092271805, 0.14599530398845673, -0.19044668972492218, 0.05087912082672119, 0.11501862853765488, 0.19533242285251617, 0.12247920036315918, -0.23409403860569, 0.10228021442890167, 0.016241848468780518, -0.16600193083286285, -0.17099972069263458, 0.0363771915435791, -0.002942189807072282, 0.10157251358032227, 0.14401386678218842, 0.11072670668363571, -0.022240709513425827, 0.035119276493787766, 0.13053540885448456, -0.15452668070793152, -0.06749110668897629, 0.09210546314716339, -0.023770298808813095, -0.10209354013204575, -0.0457034595310688, 0.021518494933843613, -0.05988532677292824, -0.10623679310083389, 0.19829832017421722, -0.02180531993508339, -0.15012459456920624, -0.13095729053020477, 0.02596236579120159, -0.04926099255681038, -0.029591113328933716, -0.036951132118701935, 0.0607735849916935, 0.0016148719005286694, -0.10816125571727753, 0.09129847586154938, 0.10408622771501541, 0.025141576305031776, 0.03391028940677643, -0.13418027758598328, 0.02257966250181198, 0.11880224198102951, 0.03025306575000286, 0.013475879095494747, -0.3244017958641052, -0.010190393775701523, -0.09944825619459152, -0.1679801195859909, -0.09375985711812973, -0.07697314769029617, 0.1432746797800064, -0.06837065517902374, -0.13281258940696716, 0.04217557609081268, -0.025840766727924347, 0.16647544503211975, -0.07423778623342514, 0.019138149917125702, 0.09887264668941498, 0.13995325565338135, 0.0030938852578401566, -0.03839857503771782, 0.03699089214205742, 0.027137450873851776, 0.14992523193359375, 0.045469798147678375, -0.16524581611156464, 0.03804811090230942, 0.16106505692005157, -0.011795083992183208, 0.12650220096111298, -0.031112685799598694, 0.01922577992081642, -0.027771439403295517, -0.06550602614879608, 0.10876786708831787, 0.01828986592590809, 0.016655651852488518, -0.04225629195570946, 0.01169545203447342, -0.03673667088150978, 0.04598812013864517, -0.024203721433877945, -0.04074883460998535, -0.12144775688648224, -0.05260496959090233, 0.008857686072587967, 0.04790782928466797, -0.12328778952360153, -0.04769589379429817, -0.18910567462444305, 0.05123261362314224, 0.10882406681776047, -0.035276688635349274, 0.2695108652114868, 0.09077642112970352, -0.014928142540156841, 0.022999947890639305, -0.19165240228176117, 0.1874464601278305, -0.038361113518476486, -0.11255080997943878, -0.2057008445262909, -0.44465795159339905, -0.023909328505396843, 0.034776121377944946, 0.022274833172559738, 0.018382210284471512, -0.057872358709573746, 0.06608602404594421, -0.011741393245756626, -0.13062362372875214, -0.09611959010362625, 0.051207270473241806, 0.04306986555457115, 0.055358801037073135, -0.016275016590952873, -0.16797176003456116, 0.04085847735404968, -0.027873346582055092, 0.020011449232697487, -0.449516236782074, -0.44253402948379517, 0.7738885879516602, 0.44561752676963806, -0.7218783497810364, 0.08603416383266449, -0.2822708785533905, -0.11495958268642426, 0.5094574689865112, -0.7535849809646606, 1.059238314628601, 0.5640597939491272, 0.14510390162467957, -0.2827118933200836, 0.1492489129304886, -0.6596035361289978, -0.02559496834874153, 0.13264523446559906, -0.2352437824010849, -0.10496929287910461, 0.11208025366067886, 0.09520174562931061, 0.20412272214889526, 0.06341905146837234, 0.2518310844898224, 0.22339989244937897, 0.2717393934726715, 0.05726068094372749, -0.03953510895371437, 0.16170062124729156, -0.2897804379463196, 0.07335361838340759, 0.14878617227077484, 0.018278149887919426, -0.06709612160921097, 0.15741176903247833, 0.2588232159614563, 0.062120500952005386, 0.07878842949867249, -0.24036243557929993, -0.3680116832256317, 0.19655832648277283, 0.021148577332496643, -0.17053166031837463, 0.14886467158794403, 0.22473008930683136, 0.01409246027469635, -0.08482477068901062, 0.25240185856819153, -0.21364034712314606, 0.08604568988084793, -0.253277450799942, 0.6310684680938721, -0.014066868461668491, -0.10469360649585724, -0.1704241782426834, -0.1935776174068451, -0.09970086812973022, -0.2885926067829132, 0.3332540988922119, 0.15361620485782623, -0.5831131935119629, 0.05691084638237953, 0.001637074863538146, 0.3166891038417816, -0.08081457018852234, 0.2014276534318924, -0.1388438493013382, 0.011001796461641788, 0.30680909752845764, -0.347109854221344, 0.2142343968153, 0.2796602249145508, -0.21987533569335938, -0.06454475969076157, 0.39477697014808655, 0.014908182434737682, -0.027454428374767303, 0.32556718587875366, -0.16662947833538055, 0.384394109249115, -0.22351793944835663, 0.2555553615093231, -0.2389034777879715, 0.7907025814056396, -0.050263602286577225, 0.14468586444854736, -0.09740994870662689, 0.032090846449136734, -0.12048668414354324, -0.42414936423301697, 0.3393077254295349, -0.42127683758735657, -0.615138590335846, 0.2760200500488281, -0.1541977822780609, -0.25411689281463623, 0.14340269565582275, -0.12601175904273987, 0.15288624167442322, -0.25971272587776184, -0.04665511101484299, 0.2965339124202728, 0.3189939260482788, 0.11476770043373108, -0.16468970477581024, 0.014132491312921047, 0.03638642281293869, 0.13335533440113068, 0.2412383109331131, 0.02995396964251995, 0.15314070880413055, -0.04758960381150246, 0.27486512064933777, -0.18177200853824615, 0.02561008930206299, 0.19906994700431824, -0.1094934344291687, 0.016207411885261536, 0.08127669245004654, -0.08397886902093887, 0.2946464717388153, 0.2230716496706009, -0.15133321285247803, 0.18339884281158447, 0.17674383521080017, -0.037234481424093246, 0.0999029129743576, 0.14078280329704285, 0.3948685824871063, -0.4791663587093353, 0.05146683007478714, 0.14040440320968628, -0.24228255450725555, 0.19986668229103088, -0.03577316552400589, -0.008962973952293396, 0.3268505930900574, 0.13829411566257477, 0.056709423661231995, 0.14523985981941223, 0.16807721555233002, -0.21504992246627808, 0.07228618860244751, -0.2318260371685028, 0.3604256808757782, -0.16059179604053497, 0.1891825944185257, 0.49739059805870056, 0.02550394833087921, -0.2219109833240509, 0.08128630369901657, 0.025973694398999214, 0.08600512892007828, -0.1373232752084732, 0.31103411316871643, -0.3590719401836395, -0.16444432735443115, -0.046515755355358124, 0.05459067225456238, 0.30483612418174744, -0.2625158131122589, -0.03864655643701553, 0.15390847623348236, -0.019495880231261253, 0.22796611487865448, -0.18286868929862976, -0.418088436126709, -0.0910305306315422, -0.13037604093551636, 0.10374978184700012, -0.12193568795919418, -0.12336938828229904, -0.15047770738601685, 0.3002728521823883, -0.18023355305194855, 0.28179508447647095, -0.06792420893907547, -0.18095748126506805, -0.1787792593240738, 0.44938012957572937, -0.14727084338665009, 0.10624432563781738, -0.064363993704319, 0.1305733174085617, 0.10631733387708664, -0.2805444300174713, 0.08194193243980408, 0.05255161225795746, -0.37178876996040344, -0.022841088473796844, 0.186300128698349, 0.1880239099264145, 0.03484887257218361, -0.022280503064393997, -0.0005696869338862598, 0.0040312097407877445, 0.17368195950984955, 0.16890598833560944, 0.058881763368844986, -0.2002090960741043, -0.17751702666282654, -0.22537368535995483, 0.241050124168396, -0.18054552376270294, -0.3057866394519806, 0.17927853763103485, 0.0510072223842144, -0.12601006031036377, -0.4303702414035797, 0.0932946503162384, -0.19246143102645874, 0.10149654000997543, 0.33088311553001404, -0.3975788652896881, -0.2300083339214325, 0.2616386115550995, -0.321331650018692, -0.1824600100517273, 0.161838099360466, -0.04412228986620903, -0.0016273721121251583, 0.285824179649353, -0.2549084722995758, -0.42831018567085266, 0.38525840640068054, -0.3209907114505768, 0.17657235264778137, -0.04957570135593414, -0.2937811017036438, 0.27954235672950745, -0.13342402875423431, 0.14906476438045502, 0.267683744430542, 0.25969168543815613, -0.4041169583797455, 0.1601722687482834, 0.3242851495742798, -0.48949986696243286, 0.1600581556558609, 0.0010875732405111194, 0.2297523021697998, -0.043804287910461426, -0.06955460458993912, 0.07955813407897949, 0.110595703125, 0.015604808926582336, 0.13771796226501465, 0.39153850078582764, 0.08831554651260376, 0.02509305812418461, 0.3073515295982361, -0.12271614372730255, -0.03146721422672272, 0.08031068742275238, -0.15255789458751678, 0.1645122766494751, 0.00762653723359108, -0.09767475724220276, -0.1917944848537445, 0.3900350332260132, 0.034458499401807785, -0.08318786323070526, -0.31203436851501465, 0.24773529171943665, -0.031698547303676605, 0.13558870553970337, 0.4374331533908844, -0.3024701774120331, -0.6701902747154236, -0.13478392362594604, 0.13856595754623413, 0.016816260293126106, -0.002101653255522251, 0.12152804434299469, 0.05052725598216057, -0.11026293784379959, 0.07895198464393616, 0.026433037593960762, 0.029397793114185333, -0.1816924512386322, -0.08893073350191116, 0.032695114612579346, 0.14109337329864502, 0.05548095703125, 0.07837790250778198, -0.023757630959153175, -0.004752893000841141, 0.08158671110868454, -0.08070855587720871, 0.08247098326683044, 0.019106894731521606, -0.07720164954662323, 0.1004088819026947, 0.00835389830172062, -0.46570906043052673, 0.14005491137504578, -0.29201847314834595, 0.0057950071059167385, 0.05078514292836189, -0.15706776082515717, -0.493295282125473, -0.12323355674743652, 0.06857616454362869, 0.08498455584049225, 0.04105048626661301, 0.2677236497402191, -0.06717345118522644, -0.04488062113523483, 0.06418430805206299, 0.03888949379324913, 0.12141238898038864, 0.06716206669807434, -0.3879644572734833, -0.11308491230010986, -0.22643764317035675, 0.1526356339454651, -0.081606425344944, -0.05519561842083931, -0.43079209327697754, 0.21794375777244568, -0.15400458872318268, -0.27555158734321594, -0.08358101546764374, -0.31295502185821533, 0.029591120779514313, -0.11367137730121613, 0.19802358746528625, 0.0011031357571482658, -0.12369336932897568, 0.007232732139527798, -0.2511838376522064, -0.06650536507368088, -0.04136665165424347, -0.32176685333251953, 0.07074948400259018, -0.03391959145665169, 0.20041774213314056, 0.01832183636724949, 0.2802444398403168, -0.19697602093219757, -0.16577239334583282, 0.304293692111969, -0.4892675280570984, 0.1732911467552185, -0.2373783141374588, 0.15623989701271057, 0.20174488425254822, 0.057675931602716446, -0.055030457675457, 0.1980348825454712, -0.12551835179328918, -0.01083535235375166, -0.10513769090175629, -0.002888120710849762, 0.09255392104387283, -0.09244833141565323, 0.12224132567644119, -0.13962337374687195, -0.14033842086791992, 0.13333868980407715, 0.10000540316104889, -0.09095117449760437, 0.11534317582845688, -0.11585614830255508, 0.3275600075721741, 0.1481480896472931, -0.11563859134912491, 0.0481388121843338, 0.13482095301151276, 0.007563456427305937, 0.02108927257359028, -0.23346394300460815, 0.03685252368450165, 0.06619644165039062, -0.06760014593601227, 0.14311805367469788, -0.23652955889701843, 0.10859749466180801, 0.11034590750932693, -0.1164669319987297, 0.15316243469715118, -0.24870151281356812, 0.11881569772958755, -0.19977115094661713, -0.07373171299695969, 0.2672799825668335, 0.26971086859703064, 0.02105802297592163, -0.28948578238487244, -0.07398823648691177, 0.03216303884983063, 0.03563137352466583, -0.1889902651309967, 0.06440752744674683, 0.06397945433855057, 0.14700756967067719, 0.050853628665208817, 0.12759986519813538, -0.22922179102897644, -0.0993727296590805, 0.21198782324790955, 0.19850265979766846, 0.0896531268954277, -0.2230043113231659, 0.15464873611927032, -0.02378874458372593, 0.0033155991695821285, 0.08780355751514435, 0.0686468854546547, 0.08650410920381546, -0.10228104144334793, -0.01948663406074047, -0.00913225207477808, 0.11945581436157227, 0.06262359023094177, -0.1072113886475563, -0.2821565270423889, -0.11869847029447556, 0.04033902287483215, -0.23697562515735626, -0.020428260788321495, 0.03805242478847504, 0.09837338328361511, -0.02744421735405922, -0.1638675034046173, 0.2668859660625458, -0.11347423493862152, -0.07624376565217972, -0.07396142184734344, 0.2246634066104889, 0.034958649426698685, -0.13941264152526855, 0.16976259648799896, 0.13311980664730072, 0.16683872044086456, 0.043322037905454636, -0.10542633384466171, 0.1886628270149231, 0.1494143158197403, -0.19484926760196686, -0.07899394631385803, 0.131017804145813, 0.18891319632530212, -0.010411235503852367, 0.22223412990570068, 0.09705714881420135, -0.17083416879177094, -0.10058238357305527, 0.3080851435661316, 0.28569865226745605, -0.028722789138555527, -0.1334386020898819, 0.1420208215713501, -0.01636105589568615, -0.034928955137729645, 0.1647139936685562, -0.09003294259309769, -0.2221597284078598, -0.20803022384643555, -0.009262992069125175, 0.08847367018461227, 0.1265794187784195, 0.18991002440452576, -0.1888350397348404, -0.24216502904891968, 0.18868860602378845, 0.26270708441734314, -0.12314949929714203, 0.14348937571048737, 0.0822698250412941, 0.24648556113243103, 0.04427177459001541, -0.27160000801086426, 0.0170510932803154, 0.055632419884204865, -0.1515410989522934, -0.10746729373931885, 0.18648305535316467, -0.09049313515424728, 0.11354568600654602, -0.21701039373874664, -0.20471209287643433, 0.10755597800016403, 0.18105478584766388, 0.03650849312543869, -0.044274453073740005, 0.4330310523509979, -0.03983696550130844, 0.18168140947818756, -0.10168501734733582, 0.07839613407850266, 0.07467338442802429, -0.08842865377664566, -0.006485128775238991, -0.07852528989315033, -0.08480057865381241, 0.1627943217754364, -0.08165135979652405, -0.0035951873287558556, 0.015091815032064915, -0.00018203294894192368, 0.08154626190662384, -0.030961470678448677, -0.08739321678876877, 0.16603891551494598, -0.042975276708602905, -0.1866905391216278, 0.060203615576028824, -0.02264479361474514, 0.08138526976108551, 0.2518536448478699, -0.07168731838464737, -0.0528264120221138, -0.09133107960224152, -0.023981690406799316, -0.007923009805381298, 0.0019376814598217607, -0.011377298273146152, -0.16473491489887238, -0.07780562341213226, -0.09779085218906403, -0.028268922120332718, -0.055272456258535385, 0.08022051304578781, -0.03499000519514084, 0.06604902446269989, -0.0008817718480713665, -0.06399066746234894, -0.17845463752746582, 0.22805483639240265, 0.1521100401878357, 0.11727846413850784, -0.2573823630809784, 0.16007138788700104, 0.20362387597560883, -0.35204145312309265, -0.23854531347751617, -0.02917620912194252, -0.06610362231731415, -0.08320726454257965, -0.21244896948337555, -0.368783563375473, -0.21283215284347534, -0.18889220058918, 0.4205325245857239, 0.16942265629768372, 0.12633836269378662, -0.14731553196907043, 0.15905843675136566, 0.017165502533316612, -0.1935431808233261, 0.04106391966342926, 0.14782798290252686, -0.45970776677131653, -0.22744788229465485, 0.04560430347919464, 0.0650559738278389, 0.19846276938915253, -0.0092233931645751, -0.4928921163082123, -0.2490294724702835, -0.15147215127944946, -0.0027475859969854355, -0.20299898087978363, -0.11349216848611832, -0.02666812390089035, 0.239310622215271, 0.028175976127386093, -0.14486871659755707, 0.16719211637973785, 0.11345730721950531, -0.3453160524368286, -0.1864004284143448, 0.06488779932260513, -0.419543981552124, 0.15498097240924835, 0.15178053081035614, -0.21745003759860992, -0.19026552140712738, -0.0763002336025238, 0.09560408443212509, 0.014320246875286102, 0.44630759954452515, 0.11352745443582535, 0.03039049543440342, -0.020650871098041534, -0.15924948453903198, 0.08463587611913681, 0.49768373370170593, 0.02800660952925682, -0.0527985580265522, -0.09482903778553009, -0.013188615441322327, -0.25960448384284973, -0.09881487488746643, -0.00833870004862547, 0.011487048119306564, 0.025948435068130493, 0.01282406784594059, -0.23302654922008514, 0.23090620338916779, 0.12680542469024658, 0.3321441411972046, -0.11449955403804779, 0.01975388638675213, 0.0008194840629585087, 0.2049158215522766, 0.12679967284202576, 0.13772866129875183, 0.01798994280397892, -0.09759701788425446, 0.320900022983551, -0.06455636769533157, -0.08291304856538773, -0.2934543788433075, -0.00029676491976715624, -0.04126917943358421, -0.21824178099632263, 0.26720622181892395, 0.21498002111911774, 0.12353300303220749, 0.26261505484580994, -0.03776742145419121, -0.14294657111167908, 0.0911407619714737, 0.14732514321804047, 0.16519655287265778, -0.09409353137016296, 0.09089925140142441, -0.06326886266469955, -0.26665163040161133, 0.1911247968673706, -0.2132503092288971, 0.158763125538826, 0.06587353348731995, -0.12568844854831696, 0.05862332507967949, -0.04616346210241318, -0.18225981295108795, -0.013053813017904758, -0.07378950715065002, 0.157710000872612, -0.17757965624332428, 0.019593287259340286, 0.015919644385576248, -0.00372405000962317, -0.08807307481765747, 0.16638527810573578, -0.008419121615588665, 0.015554310753941536, -0.12654095888137817, -0.21349574625492096, 0.025909310206770897, -0.0048752534203231335, -0.1574772149324417, -0.10721484571695328, -0.16387702524662018, -0.12894918024539948, 0.15237000584602356, -0.028902480378746986, 0.027025777846574783, 0.11537399888038635, 0.2060527801513672, -0.13507480919361115, -0.0472223274409771, 0.07244262844324112, -0.16273429989814758, -0.04899502173066139, -0.042082130908966064, -0.19783328473567963, 0.030305495485663414, -0.133440300822258, 0.14019612967967987, 0.17093323171138763, 0.30339089035987854, -0.07672891020774841, -0.028424113988876343, 0.08703774958848953, -0.6634974479675293, 0.07691974937915802, -0.23497794568538666, -0.09655831009149551, 0.008080081082880497, -0.22627240419387817, -0.41265809535980225, 0.030474014580249786, -0.1945696771144867, 0.21368132531642914, -0.00468116020783782, 0.1217697411775589, -0.10014406591653824, -0.16341854631900787, 0.10642321407794952, -0.1331668198108673, -0.15459129214286804, 0.12959161400794983, -0.22174867987632751, -0.21116851270198822, -0.030378008261322975, 0.061301350593566895, -0.03259150683879852, 0.21945925056934357, -0.4360974431037903, -0.05218487232923508, -0.0049804812297225, -0.1997816413640976, -0.03295231610536575, -0.08035196363925934, -0.03300115093588829, -0.0660918653011322, 0.07013768702745438, 0.20183506608009338, -0.10754146426916122, 0.2296966016292572, -0.0027413791976869106, -0.17362503707408905, 0.03818615898489952, -0.5870537757873535, 0.11124610155820847, -0.1798517405986786, 0.07016459107398987, -0.09507569670677185, 0.06833500415086746, -0.04408898204565048, -0.0007192923803813756, 0.03833026438951492, 0.23740661144256592, -0.06109672039747238, 0.1223641112446785, -0.10569141060113907, -0.004998892080038786, 0.0442005954682827, 0.1738574504852295, 0.1514425426721573, 0.017601026222109795, -0.0343347042798996, -0.12095973640680313, -0.0952426940202713, -0.0032288210932165384, 0.0573185570538044, -0.1031784787774086, 0.13058900833129883, 0.08785930275917053, -0.09296964108943939, 0.1100250706076622, -0.06332385540008545, 0.05730077251791954, -0.21564991772174835, 0.09862183034420013, -0.22949877381324768, 0.3323378562927246, -0.10253686457872391, -0.005269302986562252, -0.08976630121469498, -0.06928549706935883, 0.15754327178001404, -0.10314162820577621, -0.024552365764975548, -0.21271935105323792, 0.12803803384304047, -0.0835401713848114, -0.01956206001341343, 0.20291578769683838, -0.18693067133426666, 0.01957837864756584, -0.22849810123443604, 0.2184353470802307, 0.018250614404678345, 0.019852640107274055, -0.11926360428333282, -0.16320380568504333, -0.20429188013076782, 0.34202882647514343, -0.1625681072473526, -0.10560107976198196, 0.3566233217716217, 0.22147943079471588, 0.013148671016097069, -0.29506176710128784, -0.17848967015743256, -0.1665136069059372, -0.15011882781982422, 0.16419972479343414, 0.20815332233905792, -0.29888302087783813, 0.024786759167909622, -0.06960589438676834, -0.0551975779235363, -0.1414947360754013, -0.013374441303312778, 0.011382236145436764, -0.14585809409618378, -0.2343755066394806, -0.20937906205654144, -0.036569416522979736, 0.2433221936225891, 0.2263624668121338, -0.18151864409446716, -0.2501046061515808, -0.10091057419776917, -0.031039007008075714, 0.1790560632944107, -0.23356707394123077, 0.297113835811615, 0.10773779451847076, 0.1633078157901764, -0.1034630686044693, -0.1984522044658661, 0.02109430357813835, -0.010216430760920048, -0.144756019115448, -0.05746639519929886, 0.10407323390245438, 0.36907437443733215, 0.2298053801059723, -0.12737995386123657, 0.22915403544902802, 0.22829174995422363, 0.086465023458004, -0.013879991136491299, -0.07603634148836136, -0.003917979542165995, -0.1423066407442093, 0.1901586502790451, -0.14689810574054718, 0.008572390303015709, -0.0426773726940155, -0.17640502750873566, -0.12356274574995041, -1.2358314052107744e-05, -0.08583112061023712, -0.020931575447320938, -0.08287230134010315, 0.11950252205133438, -0.09514635056257248, -0.09245388209819794, 0.14448733627796173, -0.06625472009181976, 0.13661450147628784, -0.06509944051504135, -0.0941326767206192, -0.0007443530485033989, -0.15721578896045685, 0.0467400886118412, 0.1315258890390396, 0.15985143184661865, -0.2143416851758957, 0.1612151563167572, 0.0023244405165314674, -0.00227191299200058, -0.005881876219063997, -0.01928003318607807, 0.1696978658437729, -0.12337104976177216, 0.2655163109302521, -0.07171948999166489, 0.0969008356332779, 0.023304156959056854, -0.14599527418613434, -0.14247281849384308, 0.16328898072242737, 0.03671758249402046, 0.16440840065479279, 0.01885516569018364, 0.27191588282585144, 0.19029083847999573, 0.10823111981153488, -0.05494455248117447, -0.2167978286743164, 0.07790351659059525, 0.054509393870830536, -0.15469573438167572, -0.2462870329618454, 0.06110119819641113, 0.03432488813996315, -0.11688417196273804, 0.07301665097475052, 0.14173009991645813, 0.05206535756587982, 0.04805734381079674, 0.0906081423163414, -0.021405715495347977, 0.06405339390039444, -0.1925106942653656, 0.16447409987449646, 0.00825941376388073, 0.011067765764892101, -0.0680278018116951, 0.1287207007408142, -0.09509981423616409, -0.16983118653297424, 0.05337367579340935, -0.07926097512245178, -0.04421266168355942, 0.019318781793117523, -0.1587282121181488, -0.2949589788913727, 0.023525023832917213, 0.3200676441192627, -0.06778506189584732, 0.020453838631510735, 0.06377559900283813, 0.34663572907447815, 0.01810321770608425, -0.04148460924625397, 0.06482129544019699, 0.009024499915540218, 0.058644093573093414, 0.05537089705467224, 0.17812968790531158, 0.161452054977417, 0.06911038607358932, 0.041714854538440704, 0.0538717620074749, -0.07011392712593079, 0.11494167149066925, 0.12076292932033539, -0.3288382291793823, 0.10704602301120758, 0.03157968819141388, 0.16950634121894836, 0.04857034608721733, -0.10781901329755783, 0.09122095257043839, 0.03949522227048874, -0.03589044138789177, 0.1971837878227234, 0.1002035066485405, 0.005735172890126705, -0.26821228861808777, 0.07807447016239166, 0.2627440094947815, -0.19511932134628296, 0.022640515118837357, 0.05549313500523567, -0.19759227335453033, 0.049933481961488724, 0.1309073120355606, 0.18110984563827515, -0.18774712085723877, 0.03916158154606819, -0.1437542885541916, 0.05322793498635292, 0.1784510761499405, 0.19358450174331665, -0.009844465181231499, -0.1583661586046219, 0.14607787132263184, -0.01684444770216942, -0.15111880004405975, -0.17647318542003632, -0.06572040170431137, 0.22616396844387054, -0.22988593578338623, -0.05460282415151596, 0.1959003061056137, -0.10239484161138535, -0.08674536645412445, 0.006174331530928612, 0.029612524434924126, -0.01806728169322014, 0.07297994941473007, -0.1538095623254776, 0.031168565154075623, 0.02733880653977394, -0.0013125090626999736, 0.16481077671051025, -0.0478459857404232, -0.00030031692585907876, -0.013512661680579185, 0.12592555582523346, 0.04650942608714104, -0.020406290888786316, -0.05163022130727768, 0.16788005828857422, -0.23020829260349274, -0.02172280289232731, -0.08840201050043106, -0.07557668536901474, 0.02715764194726944, -0.18242789804935455, 0.014391268603503704, -0.009114211425185204, -0.08182361721992493, 0.11000431329011917, 0.09069593250751495, 0.017972657456994057, 0.0510241761803627, 0.122986800968647, -0.059839822351932526, 0.04829857125878334, -0.061864741146564484, 0.3004428744316101, -0.14995764195919037, -0.07324659079313278, -0.0011719097383320332, 0.01725609041750431, -0.019976556301116943, -0.19081127643585205, 0.1854380965232849, -0.054024506360292435, -0.24371878802776337, 0.041756343096494675, -0.10838272422552109, -0.07298965752124786, -0.11513235419988632, 0.05630074813961983, -0.17180438339710236, 0.1924867033958435, -0.057054322212934494, -0.1123511865735054, 0.1541745960712433, 0.10772524774074554, -0.1715439260005951, 0.18172205984592438, -0.16333134472370148, 0.1453613042831421, 0.034818559885025024, 0.07324554771184921, -0.0055272383615374565, 0.17045679688453674, 0.05071932077407837, -0.07996092736721039, -0.11118427664041519, 0.07422416657209396, -0.06998935341835022, 0.013850611634552479, -0.11738919466733932, -0.21939566731452942, 0.13457024097442627, -0.0950155183672905, 0.02298116870224476, 0.06636452674865723, 0.042386800050735474, -0.012675009667873383, -0.17735563218593597, 0.13839055597782135, -0.21489845216274261, 0.3191344439983368, -0.1472787857055664, 0.12759573757648468, -0.11678938567638397, -0.09895922243595123, -0.025047926232218742, -0.08805635571479797, 0.021378163248300552, -0.2191603183746338, 0.06606746464967728, 0.08904191851615906, -0.016027452424168587, 0.14566047489643097, 0.10915718972682953, -0.1858510822057724, -0.1407664269208908, 0.09917706996202469, 0.06710207462310791, -0.025764944031834602, 0.11949306726455688, -0.06625758856534958, 0.11530911922454834, 0.06388569623231888, -0.038060836493968964, -0.10142817348241806, 0.06162798032164574, 0.08796482533216476, 0.05728285387158394, 0.013453836552798748, 0.14096030592918396, -0.01238802820444107, -0.06728570908308029, 0.07723389565944672, 0.5140672326087952, 0.34390631318092346, 0.6578800082206726, -0.6701469421386719, -0.5189617872238159, 0.40061095356941223, 0.25268232822418213, -0.08596676588058472, 0.29384663701057434, 0.4061778783798218, -1.2905750274658203, 0.3566513657569885, 0.21907545626163483, -0.7881240844726562, 0.12289882451295853, -0.21856102347373962, -0.2335989773273468, -0.298725426197052, -0.08897913247346878, -0.35549086332321167, 0.2245810329914093, 0.3524307608604431, 0.10980759561061859, -0.37597429752349854, -0.29464632272720337, 0.31330689787864685, -0.17149999737739563, -0.3695870041847229, -0.09150607138872147, 0.17104391753673553, 0.4646468758583069, 0.3614746034145355, -0.28797847032546997, 0.09142198413610458, 0.005295854993164539, -0.200801819562912, -0.23241986334323883, -0.12488032877445221, 0.25704488158226013, -0.13710515201091766, -0.31258779764175415, -0.21632303297519684, -0.09957021474838257, 0.2794513404369354, -0.08329960703849792, 0.1563267558813095, -0.05506410822272301, -0.06322646886110306, 0.06743384152650833, 0.10497810691595078, -0.30872637033462524, -0.3502453863620758, -0.10728264600038528, -0.39971596002578735, -0.11506055295467377, 0.12193834781646729, 0.07998085767030716, -0.21804887056350708, -0.033481448888778687, -0.2795834541320801, -0.06048140302300453, 0.21505877375602722, -0.011300637386739254, 0.18808773159980774, -0.05219803750514984, -0.023829488083720207, 0.0851658508181572, 0.06416310369968414, 0.1146577000617981, 0.3013899624347687, 0.10991255193948746, -0.02241492085158825, -0.03203204274177551, -0.025746693834662437, -0.005668761674314737, 0.0006381134153343737, 0.0557863712310791, -0.08439572900533676, 0.09856151044368744, -0.22294098138809204, 0.5490126609802246, -0.024271350353956223, -0.027380559593439102, -0.05102469399571419, -0.006826701108366251, -0.2616465985774994, -0.3048310875892639, -0.027787992730736732, 0.5807585716247559, 0.04929065331816673, 0.09364964067935944, 0.42657482624053955, -0.2451646625995636, -0.2523004710674286, -0.2592656910419464, -0.4783715605735779, -0.32292303442955017, 0.21780720353126526, 0.46565675735473633, 0.6242005825042725, 0.028755169361829758, 0.37040191888809204, -0.04918113350868225, 0.047593310475349426, 0.14785702526569366, 0.21993646025657654, -0.22265014052391052, 0.0045976946130394936, -0.05224933475255966, -0.20755119621753693, -0.20324000716209412, 0.210238978266716, 0.19446536898612976, -0.03141877427697182, -0.2746660113334656, 0.07176399230957031, -0.19160902500152588, -0.345470130443573, -0.024157758802175522, 0.1974210888147354, 0.07739964872598648, 0.01318828109651804, 0.4526043236255646, -0.02117079496383667, 0.09131961315870285, 0.055226683616638184, 0.1953458935022354, -0.10952958464622498, 0.22081732749938965, 0.05868091061711311, -0.4247567653656006, 0.05313768982887268, 0.29447469115257263, -0.3762027621269226, -0.30575883388519287, 0.14808882772922516, 0.32102540135383606, 0.16603189706802368, 0.045121509581804276, 0.0017678242875263095, -0.14313045144081116, 0.2698756456375122, 0.32239049673080444, 0.0397767648100853, -0.4596579670906067, -0.05550171062350273, -0.11970347166061401, -0.0022862618789076805, 0.24955761432647705, 0.03201596438884735, -0.013829495757818222, -0.19393989443778992, -0.3454650342464447, 0.41974928975105286, 0.052594929933547974, -0.058920297771692276, 0.442120760679245, 0.2754783034324646, -0.03857484459877014, 0.29155540466308594, 0.08531223982572556, 0.2767222225666046, 0.3113820254802704, 0.18235139548778534, -0.2409367710351944, 0.10971184074878693, -0.22474262118339539, 0.23848938941955566, -0.07811012119054794, -0.3510138988494873, 0.06268126517534256, 0.014792048372328281, 0.27783313393592834, -0.3535757064819336, 0.08846020698547363, -0.025940226390957832, 0.044683173298835754, 0.11445420235395432, -0.561972975730896, -0.27272340655326843, -0.07494144886732101, -0.06761524081230164, -0.09051816165447235, -0.2793285846710205, 0.4393037259578705, 0.2582862973213196, -0.02098855935037136, -0.28449398279190063, -0.2416575700044632, 0.32035353779792786, 0.3351183533668518, 0.18258969485759735, 0.31756481528282166, -0.11065281182527542, -0.23663325607776642, -0.2547653615474701, -0.16485993564128876, -0.2567669451236725, -0.09986528009176254, -0.01303309015929699, 0.01158850360661745, -0.020403122529387474, 0.13888560235500336, 0.158675417304039, -0.39477071166038513, 0.2300259917974472, -0.059759337455034256, -0.16885586082935333, 0.387373685836792, 0.5511130690574646, 0.5528663992881775, 0.41418275237083435, -0.13232377171516418, 0.11423157900571823, -0.3499933183193207, 0.013801113702356815, 0.6018139123916626, 0.10821659117937088, -0.15450505912303925, -0.043132733553647995, -0.17971859872341156, -0.2537848651409149, -0.002462756121531129, -0.1838943213224411, -0.277060329914093, 0.09780848026275635, -0.14868073165416718, 0.20367808640003204, 0.11805016547441483, 0.1400827020406723, 0.007677118293941021, -0.0746002122759819, -0.10906828194856644, 0.326655775308609, 0.22353048622608185, -0.33736398816108704, -0.1806488335132599, -0.08879433572292328, -0.028956737369298935, 0.2113458216190338, 0.056042127311229706, 0.19153350591659546, 0.22186242043972015, 0.39066267013549805, -0.25627392530441284, -0.34505265951156616, 0.18607473373413086, 0.325369268655777, -0.16475823521614075, 0.06218186393380165, -0.056504834443330765, 0.09833436459302902, 0.24011628329753876, -0.08550053089857101, -0.16333359479904175, -0.003212861018255353, -0.054298095405101776, 0.02933473140001297, -0.5627655982971191, -0.7043044567108154, -0.1537003517150879, -0.3564845323562622, 0.43140938878059387, -0.1796642541885376, -0.26012372970581055, 0.46671223640441895, -0.31886017322540283, -0.17175224423408508, -0.05636118724942207, 0.5043458938598633, 0.5153345465660095, 0.49339747428894043, -0.15913578867912292, -0.01101666409522295, 0.14051403105258942, -0.05177091434597969, -0.016807811334729195, 0.029177946969866753, -0.001166212372481823, 0.05125751346349716, -0.1724230945110321, -0.024250945076346397, 0.06026390194892883, 0.10205261409282684, 0.004219085909426212, -0.185706228017807, -0.08654765039682388, 0.05925099179148674, 0.13592185080051422, -0.06451617926359177, 0.06730861216783524, -0.011821619234979153, 0.03533373773097992, -0.1332472413778305, 0.11852531135082245, 0.32879751920700073, -0.10301052033901215, 0.05009158328175545, 0.06176300346851349, 0.08517471700906754, -0.16947507858276367, 0.3239777088165283, -0.00788937322795391, -0.1437327116727829, -0.16061213612556458, -0.005741995293647051, -0.10587047785520554, 0.069315604865551, 0.1214398592710495, 0.09822972863912582, 0.4059462249279022, -0.26049357652664185, 0.0771176889538765, -0.13361670076847076, 0.04272790625691414, 0.012819008901715279, -0.17947866022586823, 0.05999595671892166, 0.11394305527210236, 0.419778972864151, -0.12638092041015625, 0.21446922421455383, 0.06785637885332108, -0.022390712052583694, -0.016503270715475082, 0.1766132414340973, 0.103306345641613, -0.05878603085875511, -0.11776238679885864, -0.06608778238296509, 0.017782846465706825, -0.08361779898405075, 0.059337109327316284, 0.1160438135266304, 0.14615240693092346, -0.0014540005940943956, 0.01236343290656805, -0.2427513152360916, 0.09425155818462372, -0.009248599410057068, -0.20732437074184418, 0.06610681116580963, -0.5480378866195679, 0.04905522242188454, -0.04341823607683182, -0.07081202417612076, 0.18442536890506744, 0.0886305645108223, -0.029742522165179253, 0.30947306752204895, 0.00433389050886035, 0.36849114298820496, -0.0679585337638855, -0.10627178102731705, -0.2633231580257416, 0.14195211231708527, 0.20041806995868683, -0.3322280943393707, 0.0019437039736658335, -0.07720465958118439, -0.2850894331932068, 0.058510731905698776, 0.16353559494018555, 0.24815118312835693, 0.16320206224918365, -0.0941748097538948, -0.15074479579925537, -0.13482379913330078, 0.17645567655563354, -0.35906264185905457, -0.01806456968188286, -0.08916784077882767, 0.14238294959068298, -0.06328913569450378, 0.020107202231884003, 0.19174478948116302, -0.19721265137195587, 0.13544276356697083, -0.06708041578531265, 0.10970858484506607, 0.010673418641090393, -0.41927874088287354, -0.2294909805059433, -0.07282156497240067, -0.11795084923505783, 0.30606672167778015, 0.007800025399774313, -0.10209339112043381, 0.11725129932165146, -0.07056691497564316, 0.06855180859565735, -0.13804619014263153, -0.02285495400428772, -0.049747809767723083, 0.024253392592072487, 0.041958194226026535, 0.019307976588606834, -0.19807526469230652, 0.30907222628593445, -0.03620032221078873, -0.01250583864748478, 0.22516325116157532, -0.14171449840068817, -0.030413862317800522, -0.24289239943027496, -0.14698873460292816, 0.13711129128932953, -0.21616323292255402, 0.13008888065814972, -0.02379518188536167, -0.23912586271762848, 0.07805244624614716, -0.23398660123348236, 0.26007768511772156, 0.24512028694152832, 0.3171924352645874, 0.052510909736156464, 0.08984332531690598, -0.0020149201154708862, 0.15054063498973846, -0.0880143865942955, -0.14133155345916748, 0.21355202794075012, 0.03997458890080452, 0.2708231210708618, -0.04369743540883064, -0.05244966596364975, -0.2184114307165146, 0.04423363506793976, 0.11684785783290863, 0.02203143946826458, -0.049383509904146194, -0.04263957217335701, 0.37223753333091736, 0.12665317952632904, -0.17102941870689392, 0.12486011534929276, -0.051422081887722015, 0.16505537927150726, -0.09362088888883591, 0.05881499499082565, 0.12199053168296814, -0.08927866071462631, 0.0764099657535553, 0.0018812614725902677, -0.6093437671661377, 0.0814470574259758, 0.09900958091020584, 0.11966098845005035, 0.22391797602176666, -0.07970558851957321, -0.16800528764724731, 0.025868749246001244, 0.0936179980635643, -0.1123107448220253, -0.21141637861728668, -0.09097888320684433, 0.24701382219791412, 0.1754695624113083, -0.20884789526462555, -0.21243277192115784, -0.02816600538790226, 0.0744420662522316, 0.046941958367824554, 0.10409228503704071, 0.02748953551054001, -0.26516833901405334, -0.013990048319101334, 0.11887811124324799, -0.21680860221385956, -0.09626764804124832, -0.218606635928154, 0.27777668833732605, -0.12361713498830795, -0.08587596565485, -0.14904306828975677, 0.11145126074552536, 0.16625459492206573, 0.17127175629138947, 0.07270103693008423, -0.024285268038511276, 0.14641393721103668, 0.2037663608789444, 0.08277875185012817, 0.060047686100006104, -0.07327908277511597, 0.4742046594619751, 0.06243292987346649, 0.009174788370728493, -0.23470592498779297, 0.04011062905192375, 0.06204996630549431, 0.2205856442451477, 0.12174861878156662, 0.09274964779615402, -0.30986201763153076, -0.013083891943097115, -0.08061894029378891, 0.45974427461624146, 0.03383714333176613, -0.08986639231443405, 0.4190824627876282, 0.20241522789001465, -0.0018768950831145048, 0.3458103537559509, -0.15894244611263275, 0.10443452000617981, -0.16135743260383606, 0.09232599288225174, 0.16573822498321533, 0.19712920486927032, 0.2424861192703247, -0.16307199001312256, 0.21443602442741394, -0.06148321181535721, -0.04369328171014786, -0.5552952885627747, 0.16194263100624084, -0.03134722635149956, -0.033920761197805405, 0.0365409292280674, -0.09715494513511658, 0.332188218832016, -0.15006007254123688, -0.05843469873070717, 0.262925386428833, 0.13814686238765717, 0.1939438134431839, 0.039322059601545334, -0.00266101211309433, 0.08861599117517471, -0.12177158147096634, -0.03460116311907768, 0.248172789812088, 0.21829213201999664, 0.12739157676696777, -0.005659401882439852, 0.027792690321803093, 0.022530999034643173, 0.010301396250724792, -0.2585143446922302, -0.14987623691558838, -0.45984089374542236, -0.18291588127613068, -0.21816524863243103, -0.07579641044139862, 0.059263333678245544, -0.09030748158693314, -0.11327934265136719, -0.018967559561133385, 0.15913349390029907, -0.02776951529085636, -0.13567684590816498, -0.09427103400230408, 0.3862621784210205, -0.013831762596964836, -0.11532963812351227, -0.37756165862083435, -0.030407659709453583, 0.13144882023334503, 0.021245677024126053, -0.007571189198642969, 0.20066384971141815, -0.16071511805057526, 0.14451129734516144, -0.057702355086803436, -0.45913392305374146, -0.24859441816806793, -0.10221153497695923, 0.16205182671546936, -0.2135780155658722, 0.008030575700104237, -0.0701775997877121, 0.17998909950256348, 0.15900258719921112, 0.21664074063301086, -0.11748611181974411, -0.22084163129329681, -0.09512065351009369, 0.13632509112358093, -0.14034554362297058, 0.04313819855451584, -0.21425311267375946, -0.14841613173484802, 0.024437181651592255, -0.05542849376797676, -0.000477521272841841, 0.03740479797124863, 0.18037423491477966, 0.590994656085968, -0.09096649289131165, 0.3223842978477478, 0.17678284645080566, 0.010811606422066689, -0.06865054368972778, -0.05834884196519852, 0.098398357629776, -0.2163098156452179, -0.16483324766159058, -0.0021516475826501846, -0.05327528342604637, -0.20384812355041504, 